{"learner":{"attributes":{"scikit_learn":"{\"_estimator_type\": \"classifier\"}"},"feature_names":["indice_coincidencia","freq_a","freq_b","freq_c","freq_d","freq_e","freq_f","freq_g","freq_h","freq_i","freq_j","freq_k","freq_l","freq_m","freq_n","freq_o","freq_p","freq_q","freq_r","freq_s","freq_t","freq_u","freq_v","freq_w","freq_x","freq_y","freq_z"],"feature_types":["float","float","float","float","float","float","float","float","float","float","float","float","float","float","float","float","float","float","float","float","float","float","float","float","float","float","float"],"gradient_booster":{"model":{"gbtree_model_param":{"num_parallel_tree":"1","num_trees":"1000"},"iteration_indptr":[0,1,2,3,4,5,6,7,8,9,10,11,12,13,14,15,16,17,18,19,20,21,22,23,24,25,26,27,28,29,30,31,32,33,34,35,36,37,38,39,40,41,42,43,44,45,46,47,48,49,50,51,52,53,54,55,56,57,58,59,60,61,62,63,64,65,66,67,68,69,70,71,72,73,74,75,76,77,78,79,80,81,82,83,84,85,86,87,88,89,90,91,92,93,94,95,96,97,98,99,100,101,102,103,104,105,106,107,108,109,110,111,112,113,114,115,116,117,118,119,120,121,122,123,124,125,126,127,128,129,130,131,132,133,134,135,136,137,138,139,140,141,142,143,144,145,146,147,148,149,150,151,152,153,154,155,156,157,158,159,160,161,162,163,164,165,166,167,168,169,170,171,172,173,174,175,176,177,178,179,180,181,182,183,184,185,186,187,188,189,190,191,192,193,194,195,196,197,198,199,200,201,202,203,204,205,206,207,208,209,210,211,212,213,214,215,216,217,218,219,220,221,222,223,224,225,226,227,228,229,230,231,232,233,234,235,236,237,238,239,240,241,242,243,244,245,246,247,248,249,250,251,252,253,254,255,256,257,258,259,260,261,262,263,264,265,266,267,268,269,270,271,272,273,274,275,276,277,278,279,280,281,282,283,284,285,286,287,288,289,290,291,292,293,294,295,296,297,298,299,300,301,302,303,304,305,306,307,308,309,310,311,312,313,314,315,316,317,318,319,320,321,322,323,324,325,326,327,328,329,330,331,332,333,334,335,336,337,338,339,340,341,342,343,344,345,346,347,348,349,350,351,352,353,354,355,356,357,358,359,360,361,362,363,364,365,366,367,368,369,370,371,372,373,374,375,376,377,378,379,380,381,382,383,384,385,386,387,388,389,390,391,392,393,394,395,396,397,398,399,400,401,402,403,404,405,406,407,408,409,410,411,412,413,414,415,416,417,418,419,420,421,422,423,424,425,426,427,428,429,430,431,432,433,434,435,436,437,438,439,440,441,442,443,444,445,446,447,448,449,450,451,452,453,454,455,456,457,458,459,460,461,462,463,464,465,466,467,468,469,470,471,472,473,474,475,476,477,478,479,480,481,482,483,484,485,486,487,488,489,490,491,492,493,494,495,496,497,498,499,500,501,502,503,504,505,506,507,508,509,510,511,512,513,514,515,516,517,518,519,520,521,522,523,524,525,526,527,528,529,530,531,532,533,534,535,536,537,538,539,540,541,542,543,544,545,546,547,548,549,550,551,552,553,554,555,556,557,558,559,560,561,562,563,564,565,566,567,568,569,570,571,572,573,574,575,576,577,578,579,580,581,582,583,584,585,586,587,588,589,590,591,592,593,594,595,596,597,598,599,600,601,602,603,604,605,606,607,608,609,610,611,612,613,614,615,616,617,618,619,620,621,622,623,624,625,626,627,628,629,630,631,632,633,634,635,636,637,638,639,640,641,642,643,644,645,646,647,648,649,650,651,652,653,654,655,656,657,658,659,660,661,662,663,664,665,666,667,668,669,670,671,672,673,674,675,676,677,678,679,680,681,682,683,684,685,686,687,688,689,690,691,692,693,694,695,696,697,698,699,700,701,702,703,704,705,706,707,708,709,710,711,712,713,714,715,716,717,718,719,720,721,722,723,724,725,726,727,728,729,730,731,732,733,734,735,736,737,738,739,740,741,742,743,744,745,746,747,748,749,750,751,752,753,754,755,756,757,758,759,760,761,762,763,764,765,766,767,768,769,770,771,772,773,774,775,776,777,778,779,780,781,782,783,784,785,786,787,788,789,790,791,792,793,794,795,796,797,798,799,800,801,802,803,804,805,806,807,808,809,810,811,812,813,814,815,816,817,818,819,820,821,822,823,824,825,826,827,828,829,830,831,832,833,834,835,836,837,838,839,840,841,842,843,844,845,846,847,848,849,850,851,852,853,854,855,856,857,858,859,860,861,862,863,864,865,866,867,868,869,870,871,872,873,874,875,876,877,878,879,880,881,882,883,884,885,886,887,888,889,890,891,892,893,894,895,896,897,898,899,900,901,902,903,904,905,906,907,908,909,910,911,912,913,914,915,916,917,918,919,920,921,922,923,924,925,926,927,928,929,930,931,932,933,934,935,936,937,938,939,940,941,942,943,944,945,946,947,948,949,950,951,952,953,954,955,956,957,958,959,960,961,962,963,964,965,966,967,968,969,970,971,972,973,974,975,976,977,978,979,980,981,982,983,984,985,986,987,988,989,990,991,992,993,994,995,996,997,998,999,1000],"tree_info":[0,0,0,0,0,0,0,0,0,0,0,0,0,0,0,0,0,0,0,0,0,0,0,0,0,0,0,0,0,0,0,0,0,0,0,0,0,0,0,0,0,0,0,0,0,0,0,0,0,0,0,0,0,0,0,0,0,0,0,0,0,0,0,0,0,0,0,0,0,0,0,0,0,0,0,0,0,0,0,0,0,0,0,0,0,0,0,0,0,0,0,0,0,0,0,0,0,0,0,0,0,0,0,0,0,0,0,0,0,0,0,0,0,0,0,0,0,0,0,0,0,0,0,0,0,0,0,0,0,0,0,0,0,0,0,0,0,0,0,0,0,0,0,0,0,0,0,0,0,0,0,0,0,0,0,0,0,0,0,0,0,0,0,0,0,0,0,0,0,0,0,0,0,0,0,0,0,0,0,0,0,0,0,0,0,0,0,0,0,0,0,0,0,0,0,0,0,0,0,0,0,0,0,0,0,0,0,0,0,0,0,0,0,0,0,0,0,0,0,0,0,0,0,0,0,0,0,0,0,0,0,0,0,0,0,0,0,0,0,0,0,0,0,0,0,0,0,0,0,0,0,0,0,0,0,0,0,0,0,0,0,0,0,0,0,0,0,0,0,0,0,0,0,0,0,0,0,0,0,0,0,0,0,0,0,0,0,0,0,0,0,0,0,0,0,0,0,0,0,0,0,0,0,0,0,0,0,0,0,0,0,0,0,0,0,0,0,0,0,0,0,0,0,0,0,0,0,0,0,0,0,0,0,0,0,0,0,0,0,0,0,0,0,0,0,0,0,0,0,0,0,0,0,0,0,0,0,0,0,0,0,0,0,0,0,0,0,0,0,0,0,0,0,0,0,0,0,0,0,0,0,0,0,0,0,0,0,0,0,0,0,0,0,0,0,0,0,0,0,0,0,0,0,0,0,0,0,0,0,0,0,0,0,0,0,0,0,0,0,0,0,0,0,0,0,0,0,0,0,0,0,0,0,0,0,0,0,0,0,0,0,0,0,0,0,0,0,0,0,0,0,0,0,0,0,0,0,0,0,0,0,0,0,0,0,0,0,0,0,0,0,0,0,0,0,0,0,0,0,0,0,0,0,0,0,0,0,0,0,0,0,0,0,0,0,0,0,0,0,0,0,0,0,0,0,0,0,0,0,0,0,0,0,0,0,0,0,0,0,0,0,0,0,0,0,0,0,0,0,0,0,0,0,0,0,0,0,0,0,0,0,0,0,0,0,0,0,0,0,0,0,0,0,0,0,0,0,0,0,0,0,0,0,0,0,0,0,0,0,0,0,0,0,0,0,0,0,0,0,0,0,0,0,0,0,0,0,0,0,0,0,0,0,0,0,0,0,0,0,0,0,0,0,0,0,0,0,0,0,0,0,0,0,0,0,0,0,0,0,0,0,0,0,0,0,0,0,0,0,0,0,0,0,0,0,0,0,0,0,0,0,0,0,0,0,0,0,0,0,0,0,0,0,0,0,0,0,0,0,0,0,0,0,0,0,0,0,0,0,0,0,0,0,0,0,0,0,0,0,0,0,0,0,0,0,0,0,0,0,0,0,0,0,0,0,0,0,0,0,0,0,0,0,0,0,0,0,0,0,0,0,0,0,0,0,0,0,0,0,0,0,0,0,0,0,0,0,0,0,0,0,0,0,0,0,0,0,0,0,0,0,0,0,0,0,0,0,0,0,0,0,0,0,0,0,0,0,0,0,0,0,0,0,0,0,0,0,0,0,0,0,0,0,0,0,0,0,0,0,0,0,0,0,0,0,0,0,0,0,0,0,0,0,0,0,0,0,0,0,0,0,0,0,0,0,0,0,0,0,0,0,0,0,0,0,0,0,0,0,0,0,0,0,0,0,0,0,0,0,0,0,0,0,0,0,0,0,0,0,0,0,0,0,0,0,0,0,0,0,0,0,0,0,0,0,0,0,0,0,0,0,0,0,0,0,0,0,0,0,0,0,0,0,0,0,0,0,0,0,0,0,0,0,0,0,0,0,0,0,0,0,0,0,0,0,0,0,0,0,0,0,0,0,0,0,0,0,0,0,0,0,0,0,0,0,0,0,0,0,0,0,0,0,0,0,0,0,0,0,0,0,0,0,0,0,0,0,0,0,0,0,0,0,0,0,0,0,0,0,0,0,0,0,0,0,0,0,0,0,0,0,0,0,0,0,0,0,0,0,0,0,0,0,0,0,0,0,0,0,0,0,0,0,0,0,0,0,0,0,0,0,0,0,0,0,0,0,0,0,0],"trees":[{"base_weights":[7.632297E-8,1.9619052E0,-1.9942402E0,1.9745569E0,4.9184933E-1,-1.1143351E0,-2.0008044E0,1.9767491E0,3.0492166E-1,1.0396233E0,-1.1228954E0,-1.3897504E0,4.8968217E-1,-1.7427257E0,-1.003114E-1,1.9782155E0,-4.5935973E-4,-5.593982E-2,5.6652624E-2,1.3493977E0,-6.407677E-2,-7.329386E-2,1.0728607E-2,-1.6130651E0,2.6835073E-2,5.9588283E-2,-2.0413993E-2,-1.7859974E0,1.0728607E-2,9.8965794E-2,8.652705E-3,7.748249E-2,-3.371701E-2,-8.477602E-2,-2.771203E-2,-9.143801E-2,-1.7126555E-2],"categories":[],"categories_nodes":[],"categories_segments":[],"categories_sizes":[],"default_left":[0,0,0,0,0,0,0,0,0,0,0,0,0,0,0,0,0,0,0,0,0,0,0,0,0,0,0,0,0,0,0,0,0,0,0,0,0],"id":0,"left_children":[1,3,5,7,9,11,13,15,17,19,21,23,25,27,-1,29,-1,-1,-1,31,-1,-1,-1,33,-1,-1,-1,35,-1,-1,-1,-1,-1,-1,-1,-1,-1],"loss_changes":[2.1300652E4,5.007129E1,1.3364258E1,9.354492E0,2.3058138E1,1.0509491E1,2.5195312E-1,7.9296875E0,6.867813E0,1.5390358E1,3.41082E0,9.146805E0,3.0082614E0,5.6976166E0,0E0,5.0498047E0,0E0,0E0,0E0,8.0353775E0,0E0,0E0,0E0,5.880585E-1,0E0,0E0,0E0,3.1696014E0,0E0,0E0,0E0,0E0,0E0,0E0,0E0,0E0,0E0],"parents":[2147483647,0,0,1,1,2,2,3,3,4,4,5,5,6,6,7,7,8,8,9,9,10,10,11,11,12,12,13,13,15,15,19,19,23,23,27,27],"right_children":[2,4,6,8,10,12,14,16,18,20,22,24,26,28,-1,30,-1,-1,-1,32,-1,-1,-1,34,-1,-1,-1,36,-1,-1,-1,-1,-1,-1,-1,-1,-1],"split_conditions":[6.039489E-2,5.6737587E-2,6.2943265E-2,1.3043478E-1,4.5045044E-2,7.2289154E-2,6.701299E-2,1.388889E-1,4.9751243E-3,8.6021505E-2,4.8E-2,1.369863E-1,2.1052632E-2,1.5625E-1,-1.003114E-1,1.3432837E-1,-4.5935973E-4,-5.593982E-2,5.6652624E-2,5.940594E-2,-6.407677E-2,-7.329386E-2,1.0728607E-2,1.2328767E-1,2.6835073E-2,5.9588283E-2,-2.0413993E-2,1.3725491E-1,1.0728607E-2,9.8965794E-2,8.652705E-3,7.748249E-2,-3.371701E-2,-8.477602E-2,-2.771203E-2,-9.143801E-2,-1.7126555E-2],"split_indices":[0,0,0,4,26,7,0,15,5,24,23,5,1,6,0,14,0,0,0,25,0,0,0,9,0,0,0,19,0,0,0,0,0,0,0,0,0],"split_type":[0,0,0,0,0,0,0,0,0,0,0,0,0,0,0,0,0,0,0,0,0,0,0,0,0,0,0,0,0,0,0,0,0,0,0,0,0],"sum_hessian":[5.4422417E3,2.7433699E3,2.6988718E3,2.7196208E3,2.3748873E1,2.1248991E1,2.677623E3,2.715871E3,3.7498221E0,1.7999146E1,5.7497272E0,1.8249134E1,2.9998577E0,6.174707E1,2.615876E3,2.7138713E3,1.9999051E0,1.2499406E0,2.4998813E0,1.624923E1,1.749917E0,4.4997864E0,1.2499406E0,1.6499218E1,1.749917E0,1.4999288E0,1.4999288E0,6.049713E1,1.2499406E0,2.7121213E3,1.749917E0,1.4999289E1,1.2499406E0,1.47493E1,1.749917E0,5.8497223E1,1.9999051E0],"tree_param":{"num_deleted":"0","num_feature":"27","num_nodes":"37","size_leaf_vector":"1"}},{"base_weights":[-7.330575E-6,1.8697313E0,-1.8980931E0,1.8818456E0,4.6460676E-1,-1.0616957E0,-1.9043367E0,1.8839403E0,2.9005057E-1,9.8826116E-1,-1.076651E0,-1.3260071E0,4.7522813E-1,-1.715396E0,-9.556515E-2,1.8853424E0,-4.4405187E-4,-5.4398067E-2,5.4676812E-2,1.2867951E0,-6.206133E-2,-7.034429E-2,1.0431203E-2,-1.5404351E0,2.5987407E-2,5.7846587E-2,-1.980113E-2,-1.740625E0,1.0431203E-2,9.431959E-2,8.377824E-3,7.399425E-2,-3.2781377E-2,-8.1161916E-2,-2.5291456E-2,-8.865967E-2,-2.8076792E-2],"categories":[],"categories_nodes":[],"categories_segments":[],"categories_sizes":[],"default_left":[0,0,0,0,0,0,0,0,0,0,0,0,0,0,0,0,0,0,0,0,0,0,0,0,0,0,0,0,0,0,0,0,0,0,0,0,0],"id":1,"left_children":[1,3,5,7,9,11,13,15,17,19,21,23,25,27,-1,29,-1,-1,-1,31,-1,-1,-1,33,-1,-1,-1,35,-1,-1,-1,-1,-1,-1,-1,-1,-1],"loss_changes":[1.9273703E4,4.569629E1,1.2050781E1,8.496094E0,2.1009867E1,9.659998E0,2.4121094E-1,7.2041016E0,6.4449415E0,1.4221609E1,3.1567273E0,8.411762E0,2.8327026E0,5.4518433E0,0E0,4.5625E0,0E0,0E0,0E0,7.4283257E0,0E0,0E0,0E0,6.765251E-1,0E0,0E0,0E0,2.9819336E0,0E0,0E0,0E0,0E0,0E0,0E0,0E0,0E0,0E0],"parents":[2147483647,0,0,1,1,2,2,3,3,4,4,5,5,6,6,7,7,8,8,9,9,10,10,11,11,12,12,13,13,15,15,19,19,23,23,27,27],"right_children":[2,4,6,8,10,12,14,16,18,20,22,24,26,28,-1,30,-1,-1,-1,32,-1,-1,-1,34,-1,-1,-1,36,-1,-1,-1,-1,-1,-1,-1,-1,-1],"split_conditions":[6.039489E-2,5.6737587E-2,6.2943265E-2,1.3043478E-1,4.5045044E-2,7.2289154E-2,6.845514E-2,1.388889E-1,4.9751243E-3,8.6021505E-2,4.8E-2,1.369863E-1,2.1052632E-2,1.7460318E-1,-9.556515E-2,1.3432837E-1,-4.4405187E-4,-5.4398067E-2,5.4676812E-2,5.940594E-2,-6.206133E-2,-7.034429E-2,1.0431203E-2,6.153846E-2,2.5987407E-2,5.7846587E-2,-1.980113E-2,1.3725491E-1,1.0431203E-2,9.431959E-2,8.377824E-3,7.399425E-2,-3.2781377E-2,-8.1161916E-2,-2.5291456E-2,-8.865967E-2,-2.8076792E-2],"split_indices":[0,0,0,4,26,7,0,15,5,24,23,5,1,6,0,14,0,0,0,25,0,0,0,21,0,0,0,19,0,0,0,0,0,0,0,0,0],"split_type":[0,0,0,0,0,0,0,0,0,0,0,0,0,0,0,0,0,0,0,0,0,0,0,0,0,0,0,0,0,0,0,0,0,0,0,0,0],"sum_hessian":[5.428858E3,2.7348584E3,2.6939995E3,2.711145E3,2.371341E1,2.122859E1,2.672771E3,2.7073987E3,3.7463467E0,1.7967579E1,5.74583E0,1.8230623E1,2.9979665E0,1.0383271E2,2.5689382E3,2.7053987E3,1.9999113E0,1.2494446E0,2.496902E0,1.6218685E1,1.7488939E0,4.496018E0,1.2498124E0,1.6481344E1,1.7492785E0,1.4979832E0,1.4999833E0,1.025829E2,1.2498124E0,2.703649E3,1.7497798E0,1.4968809E1,1.2498758E0,1.4733245E1,1.7480993E0,9.933524E1,3.2476573E0],"tree_param":{"num_deleted":"0","num_feature":"27","num_nodes":"37","size_leaf_vector":"1"}},{"base_weights":[-2.053512E-5,1.7898927E0,-1.8150141E0,1.801577E0,4.3980065E-1,-1.223828E0,-9.117048E-2,1.803595E0,2.7615437E-1,9.4163543E-1,-1.0340872E0,-1.3319408E0,2.144992E-2,1.8049474E0,-4.2924477E-4,-5.294394E-2,5.2827742E-2,1.2300941E0,-6.018573E-2,-6.765508E-2,1.0142362E-2,-1.4148118E0,3.1328257E-2,9.0297885E-2,8.111858E-3,7.084757E-2,-3.1881597E-2,-4.1936066E-2,-8.047216E-2],"categories":[],"categories_nodes":[],"categories_segments":[],"categories_sizes":[],"default_left":[0,0,0,0,0,0,0,0,0,0,0,0,0,0,0,0,0,0,0,0,0,0,0,0,0,0,0,0,0],"id":2,"left_children":[1,3,5,7,9,11,-1,13,15,17,19,21,-1,23,-1,-1,-1,25,-1,-1,-1,27,-1,-1,-1,-1,-1,-1,-1],"loss_changes":[1.7521637E4,4.2043945E1,1.1061523E1,7.790039E0,1.9185627E1,7.815365E0,0E0,6.602539E0,6.054404E0,1.3171696E1,2.9304051E0,7.1016693E0,0E0,4.1640625E0,0E0,0E0,0E0,6.8878326E0,0E0,0E0,0E0,2.803917E0,0E0,0E0,0E0,0E0,0E0,0E0,0E0],"parents":[2147483647,0,0,1,1,2,2,3,3,4,4,5,5,7,7,8,8,9,9,10,10,11,11,13,13,17,17,21,21],"right_children":[2,4,6,8,10,12,-1,14,16,18,20,22,-1,24,-1,-1,-1,26,-1,-1,-1,28,-1,-1,-1,-1,-1,-1,-1],"split_conditions":[6.039489E-2,5.6737587E-2,6.473953E-2,1.3043478E-1,4.5045044E-2,1.369863E-1,-9.117048E-2,1.388889E-1,4.9751243E-3,8.6021505E-2,4.8E-2,1.6494845E-1,2.144992E-2,1.3432837E-1,-4.2924477E-4,-5.294394E-2,5.2827742E-2,5.940594E-2,-6.018573E-2,-6.765508E-2,1.0142362E-2,4.784689E-3,3.1328257E-2,9.0297885E-2,8.111858E-3,7.084757E-2,-3.1881597E-2,-4.1936066E-2,-8.047216E-2],"split_indices":[0,0,0,4,26,5,0,15,5,24,23,6,0,14,0,0,0,25,0,0,0,16,0,0,0,0,0,0,0],"split_type":[0,0,0,0,0,0,0,0,0,0,0,0,0,0,0,0,0,0,0,0,0,0,0,0,0,0,0,0,0],"sum_hessian":[5.391462E3,2.714493E3,2.676969E3,2.6908706E3,2.3622374E1,3.9538918E1,2.63743E3,2.687133E3,3.7373335E0,1.7891672E1,5.730701E0,3.729365E1,2.245267E0,2.6851333E3,1.9999171E0,1.2470909E0,2.4902425E0,1.6147184E1,1.7444886E0,4.4810824E0,1.2496185E0,3.604603E1,1.2476251E0,2.6833838E3,1.7495848E0,1.4898052E1,1.2491319E0,1.04435E1,2.5602528E1],"tree_param":{"num_deleted":"0","num_feature":"27","num_nodes":"29","size_leaf_vector":"1"}},{"base_weights":[-2.223426E-5,1.7201189E0,-1.7425046E0,1.7314589E0,4.1706797E-1,-9.625685E-1,-1.7483823E0,1.7328029E0,-1.032802E-2,8.990286E-1,-9.94729E-1,-1.2162308E0,4.8972043E-1,-1.5684322E0,-8.775246E-2,1.7341161E0,-4.1493852E-4,1.1783867E0,-5.843533E-2,-6.5190196E-2,9.861806E-3,-1.4166728E0,2.4503032E-2,5.678912E-2,-1.758331E-2,-1.5923015E0,1.063741E-2,8.677866E-2,1.974217E-2,6.798882E-2,-3.1015543E-2,-3.0571407E-2,-7.70428E-2,-8.120225E-2,-2.3691319E-2],"categories":[],"categories_nodes":[],"categories_segments":[],"categories_sizes":[],"default_left":[0,0,0,0,0,0,0,0,0,0,0,0,0,0,0,0,0,0,0,0,0,0,0,0,0,0,0,0,0,0,0,0,0,0,0],"id":3,"left_children":[1,3,5,7,9,11,13,15,-1,17,19,21,23,25,-1,27,-1,29,-1,-1,-1,31,-1,-1,-1,33,-1,-1,-1,-1,-1,-1,-1,-1,-1],"loss_changes":[1.5993121E4,3.895508E1,1.0467285E1,7.290039E0,1.7553576E1,8.719233E0,4.0234375E-1,6.095703E0,0E0,1.2223906E1,2.7276034E0,7.2129498E0,2.5693364E0,4.7326965E0,0E0,4.501953E0,0E0,6.4032516E0,0E0,0E0,0E0,7.8915405E-1,0E0,0E0,0E0,2.8554688E0,0E0,0E0,0E0,0E0,0E0,0E0,0E0,0E0,0E0],"parents":[2147483647,0,0,1,1,2,2,3,3,4,4,5,5,6,6,7,7,9,9,10,10,11,11,12,12,13,13,15,15,17,17,21,21,25,25],"right_children":[2,4,6,8,10,12,14,16,-1,18,20,22,24,26,-1,28,-1,30,-1,-1,-1,32,-1,-1,-1,34,-1,-1,-1,-1,-1,-1,-1,-1,-1],"split_conditions":[6.039489E-2,5.6737587E-2,6.2943265E-2,1.375E-1,4.5045044E-2,7.2289154E-2,6.845514E-2,1.388889E-1,-1.032802E-2,8.6021505E-2,4.8E-2,1.369863E-1,2.1052632E-2,1.7460318E-1,-8.775246E-2,1.1304348E-1,-4.1493852E-4,5.940594E-2,-5.843533E-2,-6.5190196E-2,9.861806E-3,4.7393367E-3,2.4503032E-2,5.678912E-2,-1.758331E-2,1.3725491E-1,1.063741E-2,8.677866E-2,1.974217E-2,6.798882E-2,-3.1015543E-2,-3.0571407E-2,-7.70428E-2,-8.120225E-2,-2.3691319E-2],"split_indices":[0,0,0,4,26,7,0,15,0,24,23,5,1,6,0,26,0,25,0,0,0,12,0,0,0,19,0,0,0,0,0,0,0,0,0],"split_type":[0,0,0,0,0,0,0,0,0,0,0,0,0,0,0,0,0,0,0,0,0,0,0,0,0,0,0,0,0,0,0,0,0,0,0],"sum_hessian":[5.3338145E3,2.6841208E3,2.6496936E3,2.6606375E3,2.3483448E1,2.1051636E1,2.628642E3,2.6588994E3,1.7379509E0,1.7777687E1,5.7057614E0,1.8059788E1,2.991848E0,1.02348595E2,2.5262935E3,2.6568997E3,1.9999225E0,1.6040648E1,1.7370396E0,4.4563966E0,1.2493651E0,1.6313175E1,1.7466123E0,1.4944416E0,1.4974064E0,1.0109981E2,1.2487822E0,2.6537163E3,3.1832547E0,1.4792882E1,1.247766E0,2.9711094E0,1.3342066E1,9.787013E1,3.2296765E0],"tree_param":{"num_deleted":"0","num_feature":"27","num_nodes":"35","size_leaf_vector":"1"}},{"base_weights":[-4.0747826E-5,1.658642E0,-1.678793E0,1.6697074E0,3.9611396E-1,-9.228309E-1,-1.6845294E0,1.6716508E0,2.3470683E-1,-7.036593E-1,9.900506E-1,-1.1686641E0,4.7593707E-1,-1.5084832E0,-8.4553495E-2,1.6729373E0,-4.0110128E-4,-5.196925E-2,4.9581405E-2,-1.1110706E0,2.6002286E-2,-2.3743808E-1,1.3401672E0,-1.3632503E0,2.3742933E-2,5.5221736E-2,-1.7064469E-2,-1.5317544E0,1.0342757E-2,8.369725E-2,5.109378E-3,-6.861723E-2,4.142164E-3,-4.7351304E-2,3.5466056E-2,7.516421E-2,3.1106973E-3,-4.095665E-2,-7.957662E-2,-7.812797E-2,-2.2821529E-2],"categories":[],"categories_nodes":[],"categories_segments":[],"categories_sizes":[],"default_left":[0,0,0,0,0,0,0,0,0,0,0,0,0,0,0,0,0,0,0,0,0,0,0,0,0,0,0,0,0,0,0,0,0,0,0,0,0,0,0,0,0],"id":4,"left_children":[1,3,5,7,9,11,13,15,17,19,21,23,25,27,-1,29,-1,-1,-1,31,-1,33,35,37,-1,-1,-1,39,-1,-1,-1,-1,-1,-1,-1,-1,-1,-1,-1,-1,-1],"loss_changes":[1.464976E4,3.630957E1,9.785156E0,6.9228516E0,1.65716E1,8.088133E0,4.350586E-1,5.67334E0,5.573883E0,5.1181655E0,7.278839E0,6.69779E0,2.4236062E0,4.3954773E0,0E0,3.9726562E0,0E0,0E0,0E0,2.344427E0,0E0,3.6572292E0,2.5647964E0,8.2961273E-1,0E0,0E0,0E0,2.630066E0,0E0,0E0,0E0,0E0,0E0,0E0,0E0,0E0,0E0,0E0,0E0,0E0,0E0],"parents":[2147483647,0,0,1,1,2,2,3,3,4,4,5,5,6,6,7,7,8,8,9,9,10,10,11,11,12,12,13,13,15,15,19,19,21,21,22,22,23,23,27,27],"right_children":[2,4,6,8,10,12,14,16,18,20,22,24,26,28,-1,30,-1,-1,-1,32,-1,34,36,38,-1,-1,-1,40,-1,-1,-1,-1,-1,-1,-1,-1,-1,-1,-1,-1,-1],"split_conditions":[6.039489E-2,5.6737587E-2,6.2943265E-2,1.3043478E-1,3.726708E-2,7.2289154E-2,6.845514E-2,1.388889E-1,4.9751243E-3,7.54717E-2,5.076142E-3,1.369863E-1,2.1052632E-2,1.7460318E-1,-8.4553495E-2,1.3432837E-1,-4.0110128E-4,-5.196925E-2,4.9581405E-2,6.1068702E-2,2.6002286E-2,8.62069E-2,4.5045044E-2,2.1505376E-2,2.3742933E-2,5.5221736E-2,-1.7064469E-2,1.3725491E-1,1.0342757E-2,8.369725E-2,5.109378E-3,-6.861723E-2,4.142164E-3,-4.7351304E-2,3.5466056E-2,7.516421E-2,3.1106973E-3,-4.095665E-2,-7.957662E-2,-7.812797E-2,-2.2821529E-2],"split_indices":[0,0,0,4,19,7,0,15,5,7,17,5,1,6,0,14,0,0,0,5,0,19,26,26,0,0,0,19,0,0,0,0,0,0,0,0,0,0,0,0,0],"split_type":[0,0,0,0,0,0,0,0,0,0,0,0,0,0,0,0,0,0,0,0,0,0,0,0,0,0,0,0,0,0,0,0,0,0,0,0,0,0,0,0,0],"sum_hessian":[5.2591484E3,2.645393E3,2.6137556E3,2.6220896E3,2.3303501E1,2.0903807E1,2.5928518E3,2.6183787E3,3.7109709E0,8.107102E0,1.5196398E1,1.7919043E1,2.984764E0,1.0117559E2,2.4916763E3,2.6163787E3,1.9999276E0,1.2439355E0,2.4670353E0,6.1512084E0,1.9558944E0,3.4439468E0,1.1752451E1,1.6174572E1,1.744469E0,1.4885411E0,1.496223E0,9.992696E1,1.2486323E0,2.6146355E3,1.7431052E0,4.9241633E0,1.2270448E0,1.9683806E0,1.4755664E0,1.0265809E1,1.4866416E0,6.136437E0,1.0038136E1,9.670356E1,3.2234013E0],"tree_param":{"num_deleted":"0","num_feature":"27","num_nodes":"41","size_leaf_vector":"1"}},{"base_weights":[-4.459647E-5,1.6041567E0,-1.6223842E0,1.614989E0,3.803769E-1,-1.075553E0,-8.151432E-2,1.6168975E0,2.234797E-1,-6.759134E-1,9.529121E-1,-1.1738925E0,1.9671684E-2,1.6182394E0,2.3786102E-3,-5.0648004E-2,4.8032913E-2,-1.0700096E0,2.519604E-2,1.2077496E0,-2.8530253E-2,-1.2501494E0,2.898677E-2,8.096649E-2,1.0927205E-2,-7.283472E-2,-7.123865E-3,7.04971E-2,-1.5285382E-2,-3.493645E-2,-7.2057776E-2],"categories":[],"categories_nodes":[],"categories_segments":[],"categories_sizes":[],"default_left":[0,0,0,0,0,0,0,0,0,0,0,0,0,0,0,0,0,0,0,0,0,0,0,0,0,0,0,0,0,0,0],"id":5,"left_children":[1,3,5,7,9,11,-1,13,15,17,19,21,-1,23,-1,-1,-1,25,-1,27,-1,29,-1,-1,-1,-1,-1,-1,-1,-1,-1],"loss_changes":[1.346123E4,3.386084E1,9.358887E0,6.484375E0,1.5234634E1,6.178421E0,0E0,5.3432617E0,5.248514E0,4.7543125E0,6.9246893E0,5.718132E0,0E0,3.5698242E0,0E0,0E0,0E0,2.3445778E0,0E0,4.7396603E0,0E0,2.7953606E0,0E0,0E0,0E0,0E0,0E0,0E0,0E0,0E0,0E0],"parents":[2147483647,0,0,1,1,2,2,3,3,4,4,5,5,7,7,8,8,9,9,10,10,11,11,13,13,17,17,19,19,21,21],"right_children":[2,4,6,8,10,12,-1,14,16,18,20,22,-1,24,-1,-1,-1,26,-1,28,-1,30,-1,-1,-1,-1,-1,-1,-1,-1,-1],"split_conditions":[6.039489E-2,5.6737587E-2,6.473953E-2,1.3043478E-1,3.726708E-2,1.369863E-1,-8.151432E-2,1.2264151E-1,4.9751243E-3,7.54717E-2,5.940594E-2,1.6494845E-1,1.9671684E-2,1.1904762E-1,2.3786102E-3,-5.0648004E-2,4.8032913E-2,2.4691358E-2,2.519604E-2,4.5045044E-2,-2.8530253E-2,4.784689E-3,2.898677E-2,8.096649E-2,1.0927205E-2,-7.283472E-2,-7.123865E-3,7.04971E-2,-1.5285382E-2,-3.493645E-2,-7.2057776E-2],"split_indices":[0,0,0,4,19,5,0,14,5,7,25,6,0,25,0,0,0,21,0,26,0,16,0,0,0,0,0,0,0,0,0],"split_type":[0,0,0,0,0,0,0,0,0,0,0,0,0,0,0,0,0,0,0,0,0,0,0,0,0,0,0,0,0,0,0],"sum_hessian":[5.1703047E3,2.5996907E3,2.570614E3,2.5765645E3,2.3126043E1,3.8572216E1,2.532042E3,2.5728738E3,3.6906354E0,8.065379E0,1.5060665E1,3.6340343E1,2.2318742E0,2.5706445E3,2.2293308E0,1.2387784E0,2.4518569E0,6.115668E0,1.9497118E0,1.3080039E1,1.9806259E0,3.5101074E1,1.2392691E0,2.568487E3,2.1576135E0,3.913598E0,2.2020698E0,1.1598868E1,1.4811708E0,1.0228968E1,2.4872107E1],"tree_param":{"num_deleted":"0","num_feature":"27","num_nodes":"31","size_leaf_vector":"1"}},{"base_weights":[-4.1843636E-5,1.5555131E0,-1.5720589E0,1.5661846E0,3.634535E-1,-1.034307E0,-7.899514E-2,1.5674765E0,-1.0441151E-2,-6.512596E-1,9.165841E-1,-1.1299832E0,1.9007226E-2,1.5687692E0,-2.1761102E-3,-1.0329773E0,2.4419127E-2,-2.4661544E-1,1.2543601E0,-1.2044758E0,2.8225226E-2,7.851171E-2,1.3971791E-2,-7.044381E-2,-6.8792887E-3,-4.6323877E-2,3.3566352E-2,8.895212E-3,7.174017E-2,-3.3517674E-2,-6.955449E-2],"categories":[],"categories_nodes":[],"categories_segments":[],"categories_sizes":[],"default_left":[0,0,0,0,0,0,0,0,0,0,0,0,0,0,0,0,0,0,0,0,0,0,0,0,0,0,0,0,0,0,0],"id":6,"left_children":[1,3,5,7,9,11,-1,13,-1,15,17,19,-1,21,-1,23,-1,25,27,29,-1,-1,-1,-1,-1,-1,-1,-1,-1,-1,-1],"loss_changes":[1.2402453E4,3.1860352E1,9.006348E0,6.1210938E0,1.4023153E1,5.7293053E0,0E0,5.3256836E0,0E0,4.430096E0,6.5553885E0,5.341793E0,0E0,4.3251953E0,0E0,2.1893911E0,0E0,3.3761196E0,2.1696396E0,2.625496E0,0E0,0E0,0E0,0E0,0E0,0E0,0E0,0E0,0E0,0E0,0E0],"parents":[2147483647,0,0,1,1,2,2,3,3,4,4,5,5,7,7,9,9,10,10,11,11,13,13,15,15,17,17,18,18,19,19],"right_children":[2,4,6,8,10,12,-1,14,-1,16,18,20,-1,22,-1,24,-1,26,28,30,-1,-1,-1,-1,-1,-1,-1,-1,-1,-1,-1],"split_conditions":[6.039489E-2,5.6737587E-2,6.473953E-2,1.375E-1,3.726708E-2,1.369863E-1,-7.899514E-2,1.388889E-1,-1.0441151E-2,7.54717E-2,5.076142E-3,1.6494845E-1,1.9007226E-2,1.1304348E-1,-2.1761102E-3,2.4691358E-2,2.4419127E-2,8.62069E-2,5E-3,4.784689E-3,2.8225226E-2,7.851171E-2,1.3971791E-2,-7.044381E-2,-6.8792887E-3,-4.6323877E-2,3.3566352E-2,8.895212E-3,7.174017E-2,-3.3517674E-2,-6.955449E-2],"split_indices":[0,0,0,4,19,5,0,15,0,7,17,6,0,26,0,21,0,19,1,16,0,0,0,0,0,0,0,0,0,0,0],"split_type":[0,0,0,0,0,0,0,0,0,0,0,0,0,0,0,0,0,0,0,0,0,0,0,0,0,0,0,0,0,0,0],"sum_hessian":[5.0698335E3,2.5482646E3,2.5215688E3,2.5253435E3,2.2921192E1,3.8161846E1,2.483407E3,2.5236235E3,1.7198504E0,8.023939E0,1.4897252E1,3.5932423E1,2.2294219E0,2.5216265E3,1.9972485E0,6.0807996E0,1.9431396E0,3.4131768E0,1.1484076E1,3.4696293E1,1.2361299E0,2.5185474E3,3.0790975E0,3.8789024E0,2.2018971E0,1.9555364E0,1.4576404E0,1.9337842E0,9.550291E0,1.0172625E1,2.4523668E1],"tree_param":{"num_deleted":"0","num_feature":"27","num_nodes":"31","size_leaf_vector":"1"}},{"base_weights":[-3.449283E-5,1.5118629E0,-1.5269618E0,1.5265152E0,6.490348E-1,-8.067305E-1,-1.5326064E0,1.5283192E0,7.013139E-2,8.8898087E-1,-1.1296383E0,-1.0475615E0,5.1188517E-1,-1.3548895E0,-7.696501E-2,1.5297045E0,-9.181289E-5,5.005777E-2,-4.856599E-2,1.1435639E0,-6.432351E-1,-1.2697722E-2,-7.2247945E-2,-1.2290184E0,2.1825185E-2,5.477802E-2,-1.3861427E-2,-1.3775125E0,1.0917811E-2,7.651684E-2,1.9502124E-2,6.633858E-2,-4.468087E-3,-5.7225566E-2,4.14862E-2,-3.4720626E-2,-7.3137835E-2,-7.048227E-2,-1.6304238E-2],"categories":[],"categories_nodes":[],"categories_segments":[],"categories_sizes":[],"default_left":[0,0,0,0,0,0,0,0,0,0,0,0,0,0,0,0,0,0,0,0,0,0,0,0,0,0,0,0,0,0,0,0,0,0,0,0,0,0,0],"id":7,"left_children":[1,3,5,7,9,11,13,15,17,19,21,23,25,27,-1,29,-1,-1,-1,31,33,-1,-1,35,-1,-1,-1,37,-1,-1,-1,-1,-1,-1,-1,-1,-1,-1,-1],"loss_changes":[1.1454794E4,3.0529297E1,8.799805E0,6.3325195E0,1.9514763E1,7.3029585E0,8.2714844E-1,5.190918E0,4.9286423E0,1.5861221E1,1.1781821E0,5.476881E0,2.128777E0,3.7609406E0,0E0,1.1650391E0,0E0,0E0,0E0,7.7107277E0,5.501484E0,0E0,0E0,1.0596848E0,0E0,0E0,0E0,2.7829437E0,0E0,0E0,0E0,0E0,0E0,0E0,0E0,0E0,0E0,0E0,0E0],"parents":[2147483647,0,0,1,1,2,2,3,3,4,4,5,5,6,6,7,7,8,8,9,9,10,10,11,11,12,12,13,13,15,15,19,19,20,20,23,23,27,27],"right_children":[2,4,6,8,10,12,14,16,18,20,22,24,26,28,-1,30,-1,-1,-1,32,34,-1,-1,36,-1,-1,-1,38,-1,-1,-1,-1,-1,-1,-1,-1,-1,-1,-1],"split_conditions":[6.039489E-2,5.476804E-2,6.2943265E-2,1.1304348E-1,5.940594E-2,7.2289154E-2,6.845514E-2,1.2264151E-1,3.846154E-2,6.4935066E-2,5.076142E-3,1.369863E-1,2.1052632E-2,1.7460318E-1,-7.696501E-2,1.3366337E-1,-9.181289E-5,5.005777E-2,-4.856599E-2,5.147059E-2,5.4347824E-2,-1.2697722E-2,-7.2247945E-2,2.1505376E-2,2.1825185E-2,5.477802E-2,-1.3861427E-2,1.3725491E-1,1.0917811E-2,7.651684E-2,1.9502124E-2,6.633858E-2,-4.468087E-3,-5.7225566E-2,4.14862E-2,-3.4720626E-2,-7.3137835E-2,-7.048227E-2,-1.6304238E-2],"split_indices":[0,0,0,26,25,7,0,14,4,20,24,5,1,6,0,4,0,0,0,26,19,0,0,26,0,0,0,19,0,0,0,0,0,0,0,0,0,0,0],"split_type":[0,0,0,0,0,0,0,0,0,0,0,0,0,0,0,0,0,0,0,0,0,0,0,0,0,0,0,0,0,0,0,0,0,0,0,0,0,0,0],"sum_hessian":[4.959884E3,2.4922126E3,2.4676714E3,2.4498408E3,4.237198E1,2.0308262E1,2.447363E3,2.4467605E3,3.0801725E0,3.7776115E1,4.5958633E0,1.7345798E1,2.9624646E0,9.621843E1,2.3511445E3,2.4445479E3,2.2126157E0,1.6467355E0,1.433437E0,3.261129E1,5.1648245E0,1.694742E0,2.9011214E0,1.5609125E1,1.7366731E0,1.4796699E0,1.4827946E0,9.497709E1,1.2413409E0,2.4428499E3,1.6980715E0,2.8326042E1,4.28525E0,4.019796E0,1.1450286E0,5.9564443E0,9.65268E0,9.182996E1,3.1471248E0],"tree_param":{"num_deleted":"0","num_feature":"27","num_nodes":"39","size_leaf_vector":"1"}},{"base_weights":[-4.8216676E-5,1.4724965E0,-1.4863982E0,1.4870979E0,6.2340194E-1,-9.592967E-1,-7.471238E-2,1.4888924E0,6.7384005E-2,9.268465E-1,-7.417314E-1,-1.0505211E0,1.7886778E-2,1.4902754E0,-8.865635E-5,-4.757306E-2,4.9231485E-2,1.1253028E0,-7.802434E-1,-1.104873E0,4.1349392E-2,-1.1220058E0,2.6777152E-2,7.4545324E-2,1.8919665E-2,6.299325E-2,-2.5588056E-2,-6.4043164E-2,7.982085E-3,-1.6657239E-2,-7.301166E-2,-6.0212303E-2,-6.960669E-3],"categories":[],"categories_nodes":[],"categories_segments":[],"categories_sizes":[],"default_left":[0,0,0,0,0,0,0,0,0,0,0,0,0,0,0,0,0,0,0,0,0,0,0,0,0,0,0,0,0,0,0,0,0],"id":8,"left_children":[1,3,5,7,9,11,-1,13,15,17,19,21,-1,23,-1,-1,-1,25,27,29,-1,31,-1,-1,-1,-1,-1,-1,-1,-1,-1,-1,-1],"loss_changes":[1.0602768E4,2.92417E1,8.541504E0,5.9936523E0,1.844209E1,4.961445E0,0E0,4.926758E0,4.737348E0,1.2908344E1,5.6704364E0,4.676758E0,0E0,1.1098633E0,0E0,0E0,0E0,7.7427444E0,2.2224855E0,1.4903965E0,0E0,2.6387405E0,0E0,0E0,0E0,0E0,0E0,0E0,0E0,0E0,0E0,0E0,0E0],"parents":[2147483647,0,0,1,1,2,2,3,3,4,4,5,5,7,7,8,8,9,9,10,10,11,11,13,13,17,17,18,18,19,19,21,21],"right_children":[2,4,6,8,10,12,-1,14,16,18,20,22,-1,24,-1,-1,-1,26,28,30,-1,32,-1,-1,-1,-1,-1,-1,-1,-1,-1,-1,-1],"split_conditions":[6.039489E-2,5.476804E-2,6.473953E-2,1.1304348E-1,6.7226894E-2,1.369863E-1,-7.471238E-2,1.2264151E-1,3.0612245E-2,8.571429E-2,5.6179777E-2,1.6494845E-1,1.7886778E-2,1.3366337E-1,-8.865635E-5,-4.757306E-2,4.9231485E-2,5.940594E-2,2.112676E-2,2.5806451E-2,4.1349392E-2,1.2328767E-1,2.6777152E-2,7.4545324E-2,1.8919665E-2,6.299325E-2,-2.5588056E-2,-6.4043164E-2,7.982085E-3,-1.6657239E-2,-7.301166E-2,-6.0212303E-2,-6.960669E-3],"split_indices":[0,0,0,26,11,5,0,14,7,14,9,6,0,4,0,0,0,25,16,25,0,9,0,0,0,0,0,0,0,0,0,0,0],"split_type":[0,0,0,0,0,0,0,0,0,0,0,0,0,0,0,0,0,0,0,0,0,0,0,0,0,0,0,0,0,0,0,0,0],"sum_hessian":[4.842285E3,2.4324434E3,2.4098416E3,2.390583E3,4.1860462E1,3.7167404E1,2.372674E3,2.387516E3,3.0667558E0,3.4510464E1,7.349998E0,3.4949017E1,2.2183905E0,2.3853035E3,2.2126384E0,1.435239E0,1.6315169E0,3.1221626E1,3.288838E0,6.2084856E0,1.1415124E0,3.3721745E1,1.2272698E0,2.3836099E3,1.6937267E0,2.9063131E1,2.158496E0,1.9091581E0,1.3796798E0,2.5683472E0,3.6401386E0,3.090987E1,2.811876E0],"tree_param":{"num_deleted":"0","num_feature":"27","num_nodes":"33","size_leaf_vector":"1"}},{"base_weights":[-4.845185E-5,1.4368483E0,-1.4496299E0,1.4514582E0,5.986206E-1,-9.246329E-1,-7.287749E-2,1.4532491E0,6.483444E-2,8.9314103E-1,-7.138393E-1,-1.0137854E0,1.7288243E-2,1.454635E0,-8.5600994E-5,-4.604884E-2,4.8110608E-2,1.0873381E0,-7.56612E-1,-1.0658741E0,4.0520266E-2,-1.0839162E0,2.6090065E-2,7.27634E-2,1.8356262E-2,6.097733E-2,-2.4706084E-2,-6.2171098E-2,7.7580684E-3,-1.6034331E-2,-7.061384E-2,-2.7714211E-2,-6.377505E-2],"categories":[],"categories_nodes":[],"categories_segments":[],"categories_sizes":[],"default_left":[0,0,0,0,0,0,0,0,0,0,0,0,0,0,0,0,0,0,0,0,0,0,0,0,0,0,0,0,0,0,0,0,0],"id":9,"left_children":[1,3,5,7,9,11,-1,13,15,17,19,21,-1,23,-1,-1,-1,25,27,29,-1,31,-1,-1,-1,-1,-1,-1,-1,-1,-1,-1,-1],"loss_changes":[9.832854E3,2.816455E1,8.422852E0,5.6904297E0,1.699432E1,4.6157036E0,0E0,4.6933594E0,4.4702573E0,1.2037184E1,5.323435E0,4.3825645E0,0E0,1.0649414E0,0E0,0E0,0E0,7.2363396E0,2.0909467E0,1.4014616E0,0E0,2.7653313E0,0E0,0E0,0E0,0E0,0E0,0E0,0E0,0E0,0E0,0E0,0E0],"parents":[2147483647,0,0,1,1,2,2,3,3,4,4,5,5,7,7,8,8,9,9,10,10,11,11,13,13,17,17,18,18,19,19,21,21],"right_children":[2,4,6,8,10,12,-1,14,16,18,20,22,-1,24,-1,-1,-1,26,28,30,-1,32,-1,-1,-1,-1,-1,-1,-1,-1,-1,-1,-1],"split_conditions":[6.039489E-2,5.476804E-2,6.473953E-2,1.1304348E-1,6.7226894E-2,1.369863E-1,-7.287749E-2,1.2264151E-1,3.0612245E-2,8.571429E-2,5.6179777E-2,1.6494845E-1,1.7288243E-2,1.3366337E-1,-8.5600994E-5,-4.604884E-2,4.8110608E-2,5.940594E-2,2.112676E-2,2.5806451E-2,4.0520266E-2,4.784689E-3,2.6090065E-2,7.27634E-2,1.8356262E-2,6.097733E-2,-2.4706084E-2,-6.2171098E-2,7.7580684E-3,-1.6034331E-2,-7.061384E-2,-2.7714211E-2,-6.377505E-2],"split_indices":[0,0,0,26,11,5,0,14,7,14,9,6,0,4,0,0,0,25,16,25,0,16,0,0,0,0,0,0,0,0,0,0,0],"split_type":[0,0,0,0,0,0,0,0,0,0,0,0,0,0,0,0,0,0,0,0,0,0,0,0,0,0,0,0,0,0,0,0,0],"sum_hessian":[4.718754E3,2.3697498E3,2.3490042E3,2.3284346E3,4.131515E1,3.665857E1,2.3123457E3,2.3253833E3,3.0514357E0,3.4004025E1,7.3111277E0,3.444343E1,2.2151363E0,2.3231707E3,2.21266E0,1.4415395E0,1.6098961E0,3.0727869E1,3.2761555E0,6.1836834E0,1.1274445E0,3.322038E1,1.2230521E0,2.3214814E3,1.6892333E0,2.8568424E1,2.1594448E0,1.8986806E0,1.377475E0,2.5734324E0,3.6102507E0,9.858874E0,2.3361506E1],"tree_param":{"num_deleted":"0","num_feature":"27","num_nodes":"33","size_leaf_vector":"1"}},{"base_weights":[-5.4787422E-5,1.4044539E0,-1.4162384E0,1.4191101E0,5.753799E-1,-7.09732E-1,-1.4220206E0,1.4209017E0,6.253765E-2,8.5790014E-1,-7.137951E-1,-9.50279E-1,5.5136365E-1,-1.2360059E0,-7.145708E-2,1.4222953E0,-8.26533E-5,4.7366243E-2,-4.514214E-2,1.0976232E0,-5.74452E-1,2.1614674E-1,-1.1892415E0,-1.1223193E0,2.0095035E-2,5.445049E-2,-1.0588733E-2,-1.2585906E0,1.1422718E-2,7.1146645E-2,1.7811112E-2,6.3851744E-2,-6.375748E-3,-5.313127E-2,3.8250312E-2,3.950056E-2,-1.818662E-2,-6.92545E-2,-1.2162408E-2,-2.9624721E-2,-6.8176895E-2,-6.464202E-2,-1.0595662E-2],"categories":[],"categories_nodes":[],"categories_segments":[],"categories_sizes":[],"default_left":[0,0,0,0,0,0,0,0,0,0,0,0,0,0,0,0,0,0,0,0,0,0,0,0,0,0,0,0,0,0,0,0,0,0,0,0,0,0,0,0,0,0,0],"id":10,"left_children":[1,3,5,7,9,11,13,15,17,19,21,23,25,27,-1,29,-1,-1,-1,31,33,35,37,39,-1,-1,-1,41,-1,-1,-1,-1,-1,-1,-1,-1,-1,-1,-1,-1,-1,-1,-1],"loss_changes":[9.135029E3,2.7202148E1,8.333008E0,5.416504E0,1.5813442E1,6.760912E0,1.2363281E0,4.4868164E0,4.300611E0,1.2541298E1,3.815435E0,4.553193E0,1.8415923E0,3.2971191E0,0E0,1.0292969E0,0E0,0E0,0E0,6.769806E0,4.494057E0,1.4749854E0,6.782241E-1,1.2250938E0,0E0,0E0,0E0,2.9440155E0,0E0,0E0,0E0,0E0,0E0,0E0,0E0,0E0,0E0,0E0,0E0,0E0,0E0,0E0,0E0],"parents":[2147483647,0,0,1,1,2,2,3,3,4,4,5,5,6,6,7,7,8,8,9,9,10,10,11,11,12,12,13,13,15,15,19,19,20,20,21,21,22,22,23,23,27,27],"right_children":[2,4,6,8,10,12,14,16,18,20,22,24,26,28,-1,30,-1,-1,-1,32,34,36,38,40,-1,-1,-1,42,-1,-1,-1,-1,-1,-1,-1,-1,-1,-1,-1,-1,-1,-1,-1],"split_conditions":[6.039489E-2,5.476804E-2,6.2943265E-2,1.1304348E-1,4.494382E-2,7.2289154E-2,6.845514E-2,1.2264151E-1,3.846154E-2,6.4935066E-2,1.0989011E-2,1.369863E-1,2.1052632E-2,1.7460318E-1,-7.145708E-2,1.3366337E-1,-8.26533E-5,4.7366243E-2,-4.514214E-2,5.147059E-2,5.4347824E-2,6.535948E-2,4.6728972E-2,2.1505376E-2,2.0095035E-2,5.445049E-2,-1.0588733E-2,1.3725491E-1,1.1422718E-2,7.1146645E-2,1.7811112E-2,6.3851744E-2,-6.375748E-3,-5.313127E-2,3.8250312E-2,3.950056E-2,-1.818662E-2,-6.92545E-2,-1.2162408E-2,-2.9624721E-2,-6.8176895E-2,-6.464202E-2,-1.0595662E-2],"split_indices":[0,0,0,26,25,7,0,14,4,20,24,5,1,6,0,4,0,0,0,26,19,25,22,26,0,0,0,19,0,0,0,0,0,0,0,0,0,0,0,0,0,0,0],"split_type":[0,0,0,0,0,0,0,0,0,0,0,0,0,0,0,0,0,0,0,0,0,0,0,0,0,0,0,0,0,0,0,0,0,0,0,0,0,0,0,0,0,0,0],"sum_hessian":[4.5906772E3,2.3048435E3,2.285834E3,2.2641072E3,4.0736202E1,1.9560093E1,2.266274E3,2.2610737E3,3.033601E0,3.3688065E1,7.04814E0,1.663376E1,2.9263315E0,8.999467E1,2.1762793E3,2.2588608E3,2.212681E0,1.5926312E0,1.4409698E0,2.9058441E1,4.629623E0,2.5689077E0,4.4792323E0,1.4907095E1,1.726666E0,1.4662876E0,1.4600439E0,8.8766304E1,1.2283639E0,2.2571763E3,1.6846145E0,2.530968E1,3.7487602E0,3.5444884E0,1.0851345E0,1.1090193E0,1.4598885E0,3.326404E0,1.1528282E0,5.7449164E0,9.162179E0,8.572595E1,3.0403497E0],"tree_param":{"num_deleted":"0","num_feature":"27","num_nodes":"43","size_leaf_vector":"1"}},{"base_weights":[-6.339895E-5,1.3749263E0,-1.3858389E0,1.3896446E0,5.545919E-1,-8.621045E-1,-1.393951E0,1.3914415E0,6.040881E-2,8.3780533E-1,-6.87746E-1,-9.477948E-1,1.6261464E-2,-1.2305089E0,-6.9945365E-2,1.3928471E0,-7.9804915E-5,-4.3742254E-2,4.6335224E-2,1.0291481E0,-7.452875E-1,-1.0199258E0,3.8496718E-2,-1.0155444E0,2.4728915E-2,-1.274736E0,-1.2860939E-2,6.9674596E-2,1.7283464E-2,5.79026E-2,-2.3113701E-2,-5.972605E-2,6.1213705E-3,-6.274202E-2,-6.286858E-3,-2.4594337E-2,-6.0489953E-2,-6.507393E-2,1.2653391E-2,3.7575644E-2,-4.262079E-2],"categories":[],"categories_nodes":[],"categories_segments":[],"categories_sizes":[],"default_left":[0,0,0,0,0,0,0,0,0,0,0,0,0,0,0,0,0,0,0,0,0,0,0,0,0,0,0,0,0,0,0,0,0,0,0,0,0,0,0,0,0],"id":11,"left_children":[1,3,5,7,9,11,13,15,17,19,21,23,-1,25,-1,27,-1,-1,-1,29,31,33,-1,35,-1,37,39,-1,-1,-1,-1,-1,-1,-1,-1,-1,-1,-1,-1,-1,-1],"loss_changes":[8.500639E3,2.626709E1,8.23877E0,5.168457E0,1.5049094E1,4.0230503E0,4.9316406E-2,4.3027344E0,4.063071E0,1.1050465E1,4.7488346E0,3.8549843E0,0E0,3.896408E0,0E0,1E0,0E0,0E0,0E0,6.4389076E0,1.7993166E0,1.3329148E0,0E0,2.7717018E0,0E0,3.1934586E0,2.9230695E0,0E0,0E0,0E0,0E0,0E0,0E0,0E0,0E0,0E0,0E0,0E0,0E0,0E0,0E0],"parents":[2147483647,0,0,1,1,2,2,3,3,4,4,5,5,6,6,7,7,8,8,9,9,10,10,11,11,13,13,15,15,19,19,20,20,21,21,23,23,25,25,26,26],"right_children":[2,4,6,8,10,12,14,16,18,20,22,24,-1,26,-1,28,-1,-1,-1,30,32,34,-1,36,-1,38,40,-1,-1,-1,-1,-1,-1,-1,-1,-1,-1,-1,-1,-1,-1],"split_conditions":[6.039489E-2,5.476804E-2,6.473953E-2,1.1304348E-1,6.7226894E-2,1.369863E-1,6.845514E-2,1.2264151E-1,3.0612245E-2,8.571429E-2,5.6179777E-2,1.6494845E-1,1.6261464E-2,1.3725491E-1,-6.9945365E-2,1.3366337E-1,-7.9804915E-5,-4.3742254E-2,4.6335224E-2,5.940594E-2,2.112676E-2,4.379562E-2,3.8496718E-2,4.784689E-3,2.4728915E-2,1.3235295E-1,1.724138E-2,6.9674596E-2,1.7283464E-2,5.79026E-2,-2.3113701E-2,-5.972605E-2,6.1213705E-3,-6.274202E-2,-6.286858E-3,-2.4594337E-2,-6.0489953E-2,-6.507393E-2,1.2653391E-2,3.7575644E-2,-4.262079E-2],"split_indices":[0,0,0,26,11,5,0,14,7,14,9,6,0,19,0,4,0,0,0,25,16,18,0,16,0,5,9,0,0,0,0,0,0,0,0,0,0,0,0,0,0],"split_type":[0,0,0,0,0,0,0,0,0,0,0,0,0,0,0,0,0,0,0,0,0,0,0,0,0,0,0,0,0,0,0,0,0,0,0,0,0,0,0,0,0],"sum_hessian":[4.459278E3,2.2383535E3,2.220924E3,2.1982195E3,4.0134087E1,3.551156E1,2.1854126E3,2.195205E3,3.0142221E0,3.29485E1,7.185586E0,3.3309353E1,2.2022038E0,7.165686E1,2.1137559E3,2.1929924E3,2.2127016E0,1.4446776E0,1.5695446E0,2.9707745E1,3.2407553E0,6.096589E0,1.0889968E0,3.209762E1,1.2117349E0,6.9100136E1,2.5567217E0,2.1913125E3,1.6798918E0,2.7550108E1,2.157637E0,1.8871244E0,1.3536308E0,4.5087547E0,1.5878342E0,9.640803E0,2.2456816E1,6.8057014E1,1.0431187E0,1.393173E0,1.1635486E0],"tree_param":{"num_deleted":"0","num_feature":"27","num_nodes":"41","size_leaf_vector":"1"}},{"base_weights":[-8.197846E-5,1.3478744E0,-1.3580009E0,1.3627185E0,5.337836E-1,-8.334486E-1,-1.3662516E0,1.3645241E0,5.849654E-2,8.049944E-1,-6.801019E-1,-4.584409E-1,-1.1619592E0,-1.2007493E0,-6.856505E-2,1.3659458E0,-7.705585E-5,4.567222E-2,-4.2930245E-2,1.0399587E0,-5.603417E-1,2.1605109E-1,-1.138754E0,-7.0050424E-1,6.9847316E-1,-1.2569977E0,9.278552E-3,-1.2449977E0,-1.37876095E-2,6.833001E-2,1.6772615E-2,6.1018642E-2,-7.440644E-3,-5.0932147E-2,3.6477238E-2,3.799579E-2,-1.6624821E-2,-6.626966E-2,-1.1538107E-2,-6.0400177E-2,-3.6083327E-3,6.424309E-2,-1.8008672E-2,-6.6406034E-2,-6.821637E-3,-6.359544E-2,1.2297358E-2,3.671695E-2,-4.2052224E-2],"categories":[],"categories_nodes":[],"categories_segments":[],"categories_sizes":[],"default_left":[0,0,0,0,0,0,0,0,0,0,0,0,0,0,0,0,0,0,0,0,0,0,0,0,0,0,0,0,0,0,0,0,0,0,0,0,0,0,0,0,0,0,0,0,0,0,0,0,0],"id":12,"left_children":[1,3,5,7,9,11,13,15,17,19,21,23,25,27,-1,29,-1,-1,-1,31,33,35,37,39,41,43,-1,45,47,-1,-1,-1,-1,-1,-1,-1,-1,-1,-1,-1,-1,-1,-1,-1,-1,-1,-1,-1,-1],"loss_changes":[7.921585E3,2.5517578E1,8.192383E0,4.9416504E0,1.389266E1,3.896122E0,1.2548828E-1,4.1376953E0,3.914941E0,1.1358938E1,3.5115125E0,5.6529393E0,2.6039524E0,3.7030487E0,0E0,9.760742E-1,0E0,0E0,0E0,6.4032555E0,4.0429044E0,1.3058343E0,6.117525E-1,4.934379E0,2.7541459E0,1.2071648E0,0E0,3.0522308E0,2.8189158E0,0E0,0E0,0E0,0E0,0E0,0E0,0E0,0E0,0E0,0E0,0E0,0E0,0E0,0E0,0E0,0E0,0E0,0E0,0E0,0E0],"parents":[2147483647,0,0,1,1,2,2,3,3,4,4,5,5,6,6,7,7,8,8,9,9,10,10,11,11,12,12,13,13,15,15,19,19,20,20,21,21,22,22,23,23,24,24,25,25,27,27,28,28],"right_children":[2,4,6,8,10,12,14,16,18,20,22,24,26,28,-1,30,-1,-1,-1,32,34,36,38,40,42,44,-1,46,48,-1,-1,-1,-1,-1,-1,-1,-1,-1,-1,-1,-1,-1,-1,-1,-1,-1,-1,-1,-1],"split_conditions":[6.039489E-2,5.476804E-2,6.473953E-2,1.1304348E-1,4.494382E-2,2.4590164E-2,6.845514E-2,1.2264151E-1,3.846154E-2,6.4935066E-2,1.0989011E-2,7.2164945E-2,8.6538464E-2,1.3725491E-1,-6.856505E-2,1.3366337E-1,-7.705585E-5,4.567222E-2,-4.2930245E-2,5.147059E-2,5.4347824E-2,6.535948E-2,7.2164945E-2,4.8387095E-2,5.1282052E-2,1.23809524E-1,9.278552E-3,1.3235295E-1,1.7094018E-2,6.833001E-2,1.6772615E-2,6.1018642E-2,-7.440644E-3,-5.0932147E-2,3.6477238E-2,3.799579E-2,-1.6624821E-2,-6.626966E-2,-1.1538107E-2,-6.0400177E-2,-3.6083327E-3,6.424309E-2,-1.8008672E-2,-6.6406034E-2,-6.821637E-3,-6.359544E-2,1.2297358E-2,3.671695E-2,-4.2052224E-2],"split_indices":[0,0,0,26,25,26,0,14,4,20,24,22,21,19,0,4,0,0,0,26,19,25,19,5,12,5,0,5,10,0,0,0,0,0,0,0,0,0,0,0,0,0,0,0,0,0,0,0,0],"split_type":[0,0,0,0,0,0,0,0,0,0,0,0,0,0,0,0,0,0,0,0,0,0,0,0,0,0,0,0,0,0,0,0,0,0,0,0,0,0,0,0,0,0,0,0,0,0,0,0,0],"sum_hessian":[4.3257524E3,2.170843E3,2.1549092E3,2.1313071E3,3.9535896E1,3.4949863E1,2.1199592E3,2.1283145E3,2.992804E0,3.2591114E1,6.9447827E0,1.7438568E1,1.7511293E1,6.983235E1,2.050127E3,2.1261018E3,2.212721E0,1.5509511E0,1.4418528E0,2.8009243E1,4.5818706E0,2.5301352E0,4.4146476E0,1.4747439E1,2.6911287E0,1.6420382E1,1.0909121E0,6.7275505E1,2.5568419E0,2.1244265E3,1.6750844E0,2.4295456E1,3.713788E0,3.5358543E0,1.0460163E0,1.0770029E0,1.4531322E0,3.2806149E0,1.1340326E0,7.6478453E0,7.099594E0,1.594336E0,1.0967927E0,1.5266204E1,1.1541778E0,6.622704E1,1.048467E0,1.401616E0,1.1552258E0],"tree_param":{"num_deleted":"0","num_feature":"27","num_nodes":"49","size_leaf_vector":"1"}},{"base_weights":[-1.02962724E-4,1.3230674E0,-1.3324358E0,1.3380392E0,5.151356E-1,-8.062655E-1,-1.3408592E0,1.3398575E0,5.6725662E-2,7.8813833E-1,-6.6055596E-1,-4.4038263E-1,-1.1306992E0,-1.1728747E0,-6.7300856E-2,1.3412993E0,-7.440052E-5,4.471705E-2,-4.1636724E-2,9.773035E-1,-7.3501074E-1,-9.7346544E-1,3.665305E-2,-6.770261E-1,6.728808E-1,-1.2254726E0,9.020699E-3,-1.217208E0,-1.4749144E-2,6.7098275E-2,1.62779E-2,5.5173364E-2,-2.16698E-2,-5.7521243E-2,4.6083694E-3,-5.9816398E-2,-5.824423E-3,-5.886213E-2,-3.4521825E-3,6.1730295E-2,-1.7586565E-2,-6.482204E-2,-6.640465E-3,-6.2216617E-2,1.1951793E-2,3.5913553E-2,-4.1532554E-2],"categories":[],"categories_nodes":[],"categories_segments":[],"categories_sizes":[],"default_left":[0,0,0,0,0,0,0,0,0,0,0,0,0,0,0,0,0,0,0,0,0,0,0,0,0,0,0,0,0,0,0,0,0,0,0,0,0,0,0,0,0,0,0,0,0,0,0],"id":13,"left_children":[1,3,5,7,9,11,13,15,17,19,21,23,25,27,-1,29,-1,-1,-1,31,33,35,-1,37,39,41,-1,43,45,-1,-1,-1,-1,-1,-1,-1,-1,-1,-1,-1,-1,-1,-1,-1,-1,-1,-1],"loss_changes":[7.3918667E3,2.4758057E1,8.178711E0,4.734375E0,1.332754E1,3.70747E0,2.0166016E-1,3.989502E0,3.7026374E0,1.0179773E1,4.2298174E0,5.273493E0,2.4750729E0,3.52417E0,0E0,9.5654297E-1,0E0,0E0,0E0,5.7534237E0,1.5487099E0,1.2003012E0,0E0,4.6571317E0,2.5681043E0,1.149559E0,0E0,2.9215012E0,2.7232566E0,0E0,0E0,0E0,0E0,0E0,0E0,0E0,0E0,0E0,0E0,0E0,0E0,0E0,0E0,0E0,0E0,0E0,0E0],"parents":[2147483647,0,0,1,1,2,2,3,3,4,4,5,5,6,6,7,7,8,8,9,9,10,10,11,11,12,12,13,13,15,15,19,19,20,20,21,21,23,23,24,24,25,25,27,27,28,28],"right_children":[2,4,6,8,10,12,14,16,18,20,22,24,26,28,-1,30,-1,-1,-1,32,34,36,-1,38,40,42,-1,44,46,-1,-1,-1,-1,-1,-1,-1,-1,-1,-1,-1,-1,-1,-1,-1,-1,-1,-1],"split_conditions":[6.039489E-2,5.476804E-2,6.473953E-2,1.1304348E-1,6.7226894E-2,2.4590164E-2,6.845514E-2,1.2264151E-1,3.846154E-2,8.571429E-2,5.6179777E-2,7.2164945E-2,8.6538464E-2,1.3725491E-1,-6.7300856E-2,1.3366337E-1,-7.440052E-5,4.471705E-2,-4.1636724E-2,5.940594E-2,2.112676E-2,4.379562E-2,3.665305E-2,4.8387095E-2,5.1282052E-2,1.23809524E-1,9.020699E-3,1.3235295E-1,1.724138E-2,6.7098275E-2,1.62779E-2,5.5173364E-2,-2.16698E-2,-5.7521243E-2,4.6083694E-3,-5.9816398E-2,-5.824423E-3,-5.886213E-2,-3.4521825E-3,6.1730295E-2,-1.7586565E-2,-6.482204E-2,-6.640465E-3,-6.2216617E-2,1.1951793E-2,3.5913553E-2,-4.1532554E-2],"split_indices":[0,0,0,26,11,26,0,14,4,14,9,22,21,19,0,4,0,0,0,25,16,18,0,5,12,5,0,5,9,0,0,0,0,0,0,0,0,0,0,0,0,0,0,0,0,0,0],"split_type":[0,0,0,0,0,0,0,0,0,0,0,0,0,0,0,0,0,0,0,0,0,0,0,0,0,0,0,0,0,0,0,0,0,0,0,0,0,0,0,0,0,0,0,0,0,0,0],"sum_hessian":[4.191007E3,2.1027373E3,2.0882698E3,2.0638362E3,3.890108E1,3.44275E1,2.0538423E3,2.060866E3,2.9701853E0,3.1837791E1,7.0632896E0,1.7288094E1,1.713941E1,6.798858E1,1.9858536E3,2.0586533E3,2.21274E0,1.5268472E0,1.443338E0,2.863934E1,3.1984525E0,6.0143642E0,1.0489255E0,1.458059E1,2.7075028E0,1.6044926E1,1.0944836E0,6.543278E1,2.5557952E0,2.0569832E3,1.6702102E0,2.6488194E1,2.1511445E0,1.8690308E0,1.3294216E0,4.45883E0,1.5555342E0,7.4855533E0,7.095037E0,1.6163943E0,1.0911086E0,1.4891246E1,1.1536807E0,6.437916E1,1.0536233E0,1.4093084E0,1.1464868E0],"tree_param":{"num_deleted":"0","num_feature":"27","num_nodes":"47","size_leaf_vector":"1"}},{"base_weights":[-1.3310363E-4,1.3001969E0,-1.3089013E0,1.3153576E0,4.962424E-1,-5.9596944E-1,-1.3151639E0,1.3171916E0,5.5142026E-2,7.6194024E-1,-6.347796E-1,-8.410503E-1,6.020331E-1,-1.1216086E0,-6.613977E-2,1.318657E0,-7.1841714E-5,-4.0892463E-2,4.4114694E-2,9.478183E-1,-7.145439E-1,-9.3829465E-1,3.5993554E-2,-1.0068836E0,1.8736597E-2,5.4919343E-2,-7.4982173E-3,-1.1453048E0,1.2982048E-2,6.596686E-2,1.5798695E-2,5.362162E-2,-2.094091E-2,-5.60349E-2,4.4798814E-3,-1.3733931E-2,-6.2779255E-2,-2.4778252E-2,-6.26629E-2,-6.177765E-2,-3.3371426E-2],"categories":[],"categories_nodes":[],"categories_segments":[],"categories_sizes":[],"default_left":[0,0,0,0,0,0,0,0,0,0,0,0,0,0,0,0,0,0,0,0,0,0,0,0,0,0,0,0,0,0,0,0,0,0,0,0,0,0,0,0,0],"id":14,"left_children":[1,3,5,7,9,11,13,15,17,19,21,23,25,27,-1,29,-1,-1,-1,31,33,35,-1,37,-1,-1,-1,39,-1,-1,-1,-1,-1,-1,-1,-1,-1,-1,-1,-1,-1],"loss_changes":[6.9057656E3,2.4157227E1,8.245605E0,4.5429688E0,1.2287692E1,6.213771E0,1.4763184E0,3.855713E0,3.570932E0,9.531492E0,3.9720018E0,3.7150507E0,1.6145097E0,3.0005264E0,0E0,9.416504E-1,0E0,0E0,0E0,5.4023323E0,1.4648328E0,1.1257224E0,0E0,1.2482805E0,0E0,0E0,0E0,2.6851044E0,0E0,0E0,0E0,0E0,0E0,0E0,0E0,0E0,0E0,0E0,0E0,0E0,0E0],"parents":[2147483647,0,0,1,1,2,2,3,3,4,4,5,5,6,6,7,7,8,8,9,9,10,10,11,11,12,12,13,13,15,15,19,19,20,20,21,21,23,23,27,27],"right_children":[2,4,6,8,10,12,14,16,18,20,22,24,26,28,-1,30,-1,-1,-1,32,34,36,-1,38,-1,-1,-1,40,-1,-1,-1,-1,-1,-1,-1,-1,-1,-1,-1,-1,-1],"split_conditions":[6.039489E-2,5.476804E-2,6.2943265E-2,1.1304348E-1,6.7226894E-2,7.2289154E-2,6.845514E-2,1.2264151E-1,3.0612245E-2,8.571429E-2,5.6179777E-2,1.369863E-1,2.1052632E-2,1.7460318E-1,-6.613977E-2,1.3366337E-1,-7.1841714E-5,-4.0892463E-2,4.4114694E-2,5.940594E-2,2.112676E-2,2.5806451E-2,3.5993554E-2,2.1505376E-2,1.8736597E-2,5.4919343E-2,-7.4982173E-3,7.4235804E-2,1.2982048E-2,6.596686E-2,1.5798695E-2,5.362162E-2,-2.094091E-2,-5.60349E-2,4.4798814E-3,-1.3733931E-2,-6.2779255E-2,-2.4778252E-2,-6.26629E-2,-6.177765E-2,-3.3371426E-2],"split_indices":[0,0,0,26,11,7,0,14,7,14,9,5,1,6,0,4,0,0,0,25,16,25,0,26,0,0,0,19,0,0,0,0,0,0,0,0,0,0,0,0,0],"split_type":[0,0,0,0,0,0,0,0,0,0,0,0,0,0,0,0,0,0,0,0,0,0,0,0,0,0,0,0,0,0,0,0,0,0,0,0,0,0,0,0,0],"sum_hessian":[4.055846E3,2.0344849E3,2.021361E3,1.9962048E3,3.8279964E1,1.8438986E1,2.002922E3,1.9932589E3,2.9459398E0,3.126222E1,7.017744E0,1.5554821E1,2.8841648E0,8.1588776E1,1.9213333E3,1.9910461E3,2.2127583E0,1.4387273E0,1.5072125E0,2.8084637E1,3.177583E0,5.9842916E0,1.0334523E0,1.3838996E1,1.7158244E0,1.4599218E0,1.4242431E0,8.038061E1,1.2081614E0,1.9893809E3,1.6652856E0,2.5935074E1,2.1495643E0,1.8496885E0,1.3278944E0,2.5392098E0,3.4450817E0,5.479149E0,8.359848E0,6.6278275E1,1.4102337E1],"tree_param":{"num_deleted":"0","num_feature":"27","num_nodes":"41","size_leaf_vector":"1"}},{"base_weights":[-1.5832712E-4,1.2790874E0,-1.2871816E0,1.2944585E0,4.7814146E-1,-7.5567484E-1,-1.2959858E0,1.2963114E0,5.367996E-2,7.335541E-1,-6.3506114E-1,-3.6416194E-1,-1.0434439E0,-1.1218243E0,-6.507062E-2,1.2978041E0,-6.9366426E-5,-3.969346E-2,4.3225836E-2,9.666416E-1,-5.650748E-1,2.2114913E-1,-1.0762783E0,-6.154959E-1,5.7989E-1,-1.1264416E0,5.409179E-3,-1.1674953E0,8.184075E-3,6.49397E-2,2.2434505E-2,5.76028E-2,-9.641135E-3,-4.8092138E-2,2.3145366E-2,-1.866688E-2,3.3934895E-2,-6.242582E-2,-1.1126042E-2,-5.2232333E-2,5.884514E-3,6.508636E-2,-3.5980742E-2,-5.9127904E-2,-7.520919E-3,-5.978029E-2,1.2713546E-2,3.625396E-2,-4.0335897E-2],"categories":[],"categories_nodes":[],"categories_segments":[],"categories_sizes":[],"default_left":[0,0,0,0,0,0,0,0,0,0,0,0,0,0,0,0,0,0,0,0,0,0,0,0,0,0,0,0,0,0,0,0,0,0,0,0,0,0,0,0,0,0,0,0,0,0,0,0,0],"id":15,"left_children":[1,3,5,7,9,11,13,15,17,19,21,23,25,27,-1,29,-1,-1,-1,31,33,35,37,39,41,43,-1,45,47,-1,-1,-1,-1,-1,-1,-1,-1,-1,-1,-1,-1,-1,-1,-1,-1,-1,-1,-1,-1],"loss_changes":[6.458719E3,2.360205E1,8.171387E0,4.3674316E0,1.1449684E1,3.4802284E0,3.5668945E-1,3.7338867E0,3.3807647E0,1.0197851E1,3.1640222E0,4.165383E0,1.9581566E0,3.3811646E0,0E0,1.0351562E0,0E0,0E0,0E0,6.113163E0,2.6817057E0,1.1954844E0,4.988718E-1,4.2641287E0,4.585377E0,8.084202E-1,0E0,2.813881E0,2.6476803E0,0E0,0E0,0E0,0E0,0E0,0E0,0E0,0E0,0E0,0E0,0E0,0E0,0E0,0E0,0E0,0E0,0E0,0E0,0E0,0E0],"parents":[2147483647,0,0,1,1,2,2,3,3,4,4,5,5,6,6,7,7,8,8,9,9,10,10,11,11,12,12,13,13,15,15,19,19,20,20,21,21,22,22,23,23,24,24,25,25,27,27,28,28],"right_children":[2,4,6,8,10,12,14,16,18,20,22,24,26,28,-1,30,-1,-1,-1,32,34,36,38,40,42,44,-1,46,48,-1,-1,-1,-1,-1,-1,-1,-1,-1,-1,-1,-1,-1,-1,-1,-1,-1,-1,-1,-1],"split_conditions":[6.039489E-2,5.476804E-2,6.473953E-2,1.1304348E-1,4.494382E-2,2.112676E-2,6.845514E-2,1.2264151E-1,3.0612245E-2,6.4935066E-2,1.0989011E-2,7.2164945E-2,1.3235295E-1,1.3725491E-1,-6.507062E-2,1.0638298E-1,-6.9366426E-5,-3.969346E-2,4.3225836E-2,5.147059E-2,4.819277E-2,4.784689E-3,4.6728972E-2,4.032258E-2,5.691057E-2,1.23674914E-1,5.409179E-3,1.3235295E-1,5.940594E-2,6.49397E-2,2.2434505E-2,5.76028E-2,-9.641135E-3,-4.8092138E-2,2.3145366E-2,-1.866688E-2,3.3934895E-2,-6.242582E-2,-1.1126042E-2,-5.2232333E-2,5.884514E-3,6.508636E-2,-3.5980742E-2,-5.9127904E-2,-7.520919E-3,-5.978029E-2,1.2713546E-2,3.625396E-2,-4.0335897E-2],"split_indices":[0,0,0,26,25,16,0,14,7,20,24,22,5,19,0,25,0,0,0,26,19,16,22,5,6,6,0,5,3,0,0,0,0,0,0,0,0,0,0,0,0,0,0,0,0,0,0,0,0],"split_type":[0,0,0,0,0,0,0,0,0,0,0,0,0,0,0,0,0,0,0,0,0,0,0,0,0,0,0,0,0,0,0,0,0,0,0,0,0,0,0,0,0,0,0,0,0,0,0,0,0],"sum_hessian":[3.9208887E3,1.9663889E3,1.9544998E3,1.9287578E3,3.763111E1,3.3262634E1,1.921237E3,1.925837E3,2.9207764E0,3.0885742E1,6.7453685E0,1.5051022E1,1.8211613E1,6.433037E1,1.8569067E3,1.9236243E3,2.212776E0,1.4382902E0,1.4824861E0,2.6402477E1,4.483266E0,2.4635215E0,4.281847E0,1.2161346E1,2.8896751E0,1.7007736E1,1.2038761E0,6.1799477E1,2.5308943E0,1.9208553E3,2.76897E0,2.2767956E1,3.634522E0,3.2811766E0,1.2020892E0,1.1514748E0,1.3120465E0,3.1782792E0,1.1035678E0,7.40325E0,4.7580957E0,1.8566502E0,1.033025E0,1.5882938E1,1.1247975E0,6.0757282E1,1.0421941E0,1.4050515E0,1.1258429E0],"tree_param":{"num_deleted":"0","num_feature":"27","num_nodes":"49","size_leaf_vector":"1"}},{"base_weights":[-1.8415714E-4,1.2595309E0,-1.2670772E0,1.2751412E0,4.6121013E-1,-7.328391E-1,-1.2760916E0,1.2770158E0,5.238064E-2,7.181428E-1,-6.162388E-1,-3.8229734E-1,-1.054538E0,-1.0982591E0,-6.408372E-2,1.2785393E0,-6.69756E-5,4.2684343E-2,-3.902213E-2,9.0304106E-1,-7.0885986E-1,2.5405678E-1,-1.0267951E0,-6.151208E-1,6.755761E-1,-1.1540066E0,1.1352914E-2,-1.1441853E0,6.4773373E-3,6.396429E-2,1.3433362E-2,-7.299842E-3,5.345987E-2,-5.4308753E-2,3.107935E-3,4.0173396E-2,-2.3650749E-2,-6.0207732E-2,-1.6897831E-2,-5.5418003E-2,-2.0364113E-3,5.97956E-2,-1.610013E-2,-6.119872E-2,-6.276925E-3,-5.8631748E-2,1.2355747E-2,3.588847E-2,-4.0166497E-2],"categories":[],"categories_nodes":[],"categories_segments":[],"categories_sizes":[],"default_left":[0,0,0,0,0,0,0,0,0,0,0,0,0,0,0,0,0,0,0,0,0,0,0,0,0,0,0,0,0,0,0,0,0,0,0,0,0,0,0,0,0,0,0,0,0,0,0,0,0],"id":16,"left_children":[1,3,5,7,9,11,13,15,17,19,21,23,25,27,-1,29,-1,-1,-1,31,33,35,37,39,41,43,-1,45,47,-1,-1,-1,-1,-1,-1,-1,-1,-1,-1,-1,-1,-1,-1,-1,-1,-1,-1,-1,-1],"loss_changes":[6.0467544E3,2.3087402E1,8.1623535E0,4.202881E0,1.0962983E1,3.3965473E0,4.3530273E-1,3.6237793E0,3.2651312E0,8.858377E0,3.0677078E0,4.773335E0,2.4293423E0,3.2287903E0,0E0,1.057373E0,0E0,0E0,0E0,5.039114E0,1.269903E0,1.706117E0,2.6938725E-1,4.211619E0,2.2891445E0,9.9347687E-1,0E0,2.702858E0,2.609079E0,0E0,0E0,0E0,0E0,0E0,0E0,0E0,0E0,0E0,0E0,0E0,0E0,0E0,0E0,0E0,0E0,0E0,0E0,0E0,0E0],"parents":[2147483647,0,0,1,1,2,2,3,3,4,4,5,5,6,6,7,7,8,8,9,9,10,10,11,11,12,12,13,13,15,15,19,19,20,20,21,21,22,22,23,23,24,24,25,25,27,27,28,28],"right_children":[2,4,6,8,10,12,14,16,18,20,22,24,26,28,-1,30,-1,-1,-1,32,34,36,38,40,42,44,-1,46,48,-1,-1,-1,-1,-1,-1,-1,-1,-1,-1,-1,-1,-1,-1,-1,-1,-1,-1,-1,-1],"split_conditions":[6.039489E-2,5.476804E-2,6.473953E-2,1.1304348E-1,6.7226894E-2,2.4590164E-2,6.845514E-2,1.2264151E-1,3.846154E-2,8.571429E-2,1.5625E-2,7.2164945E-2,8.6538464E-2,1.3725491E-1,-6.408372E-2,1.3366337E-1,-6.69756E-5,4.2684343E-2,-3.902213E-2,4.9751243E-3,2.112676E-2,2.5806451E-2,3.4722224E-2,4.8387095E-2,5.1282052E-2,1.23809524E-1,1.1352914E-2,1.3235295E-1,1.7094018E-2,6.396429E-2,1.3433362E-2,-7.299842E-3,5.345987E-2,-5.4308753E-2,3.107935E-3,4.0173396E-2,-2.3650749E-2,-6.0207732E-2,-1.6897831E-2,-5.5418003E-2,-2.0364113E-3,5.97956E-2,-1.610013E-2,-6.119872E-2,-6.276925E-3,-5.8631748E-2,1.2355747E-2,3.588847E-2,-4.0166497E-2],"split_indices":[0,0,0,26,11,26,0,14,4,14,10,22,21,19,0,4,0,0,0,5,16,25,8,5,12,5,0,5,10,0,0,0,0,0,0,0,0,0,0,0,0,0,0,0,0,0,0,0,0],"split_type":[0,0,0,0,0,0,0,0,0,0,0,0,0,0,0,0,0,0,0,0,0,0,0,0,0,0,0,0,0,0,0,0,0,0,0,0,0,0,0,0,0,0,0,0,0,0,0,0,0],"sum_hessian":[3.786873E3,1.8988186E3,1.8880544E3,1.8618156E3,3.7002983E1,3.2694523E1,1.8553599E3,1.8589213E3,2.8943458E0,3.0147396E1,6.855588E0,1.669311E1,1.6001413E1,6.2492622E1,1.7928672E3,1.8567085E3,2.2127929E0,1.4623166E0,1.432029E0,2.7014301E1,3.1330948E0,2.3196316E0,4.535956E0,1.4024941E1,2.6681676E0,1.4941326E1,1.0600863E0,5.996408E1,2.528541E0,1.8550703E3,1.6381135E0,3.710318E0,2.3303984E1,1.8291875E0,1.3039074E0,1.2613897E0,1.058242E0,3.012273E0,1.523683E0,7.0453644E0,6.979577E0,1.6228672E0,1.0453005E0,1.3811612E1,1.129714E0,5.8916508E1,1.0475748E0,1.4066595E0,1.1218816E0],"tree_param":{"num_deleted":"0","num_feature":"27","num_nodes":"49","size_leaf_vector":"1"}},{"base_weights":[-2.1967199E-4,1.2413516E0,-1.2483997E0,1.2572736E0,4.4363284E-1,-5.263091E-1,-1.255129E0,1.259173E0,5.1185068E-2,6.937983E-1,-6.2309563E-1,-7.723763E-1,6.1579156E-1,-1.0506766E0,-6.31707E-2,1.2607306E0,-6.4667365E-5,4.1853018E-2,-3.7906267E-2,9.231116E-1,-5.44742E-1,1.9454178E-1,-1.0437152E0,-1.0675584E0,-5.433883E-2,5.4065716E-2,-5.889502E-3,-1.0755975E0,1.4042783E-2,6.3089095E-2,1.9974133E-2,5.54847E-2,-9.880894E-3,-4.6005156E-2,2.2229692E-2,-1.870956E-2,3.2091696E-2,-6.0307592E-2,-1.133521E-2,-6.026835E-2,-1.7168527E-2,-5.09005E-2,3.5493392E-2,-5.8453765E-2,-3.0060232E-2],"categories":[],"categories_nodes":[],"categories_segments":[],"categories_sizes":[],"default_left":[0,0,0,0,0,0,0,0,0,0,0,0,0,0,0,0,0,0,0,0,0,0,0,0,0,0,0,0,0,0,0,0,0,0,0,0,0,0,0,0,0,0,0,0,0],"id":17,"left_children":[1,3,5,7,9,11,13,15,17,19,21,23,25,27,-1,29,-1,-1,-1,31,33,35,37,39,41,-1,-1,43,-1,-1,-1,-1,-1,-1,-1,-1,-1,-1,-1,-1,-1,-1,-1,-1,-1],"loss_changes":[5.6661377E3,2.2723389E1,8.19873E0,4.0515137E0,1.0416697E1,5.690643E0,1.7314453E0,3.5229492E0,3.094236E0,9.244861E0,2.8286083E0,3.2719297E0,1.4406862E0,2.832718E0,0E0,1.1181641E0,0E0,0E0,0E0,5.7277775E0,2.4283237E0,1.1142972E0,4.164219E-1,6.9190407E-1,4.8693323E0,0E0,0E0,2.626091E0,0E0,0E0,0E0,0E0,0E0,0E0,0E0,0E0,0E0,0E0,0E0,0E0,0E0,0E0,0E0,0E0,0E0],"parents":[2147483647,0,0,1,1,2,2,3,3,4,4,5,5,6,6,7,7,8,8,9,9,10,10,11,11,12,12,13,13,15,15,19,19,20,20,21,21,22,22,23,23,24,24,27,27],"right_children":[2,4,6,8,10,12,14,16,18,20,22,24,26,28,-1,30,-1,-1,-1,32,34,36,38,40,42,-1,-1,44,-1,-1,-1,-1,-1,-1,-1,-1,-1,-1,-1,-1,-1,-1,-1,-1,-1],"split_conditions":[6.039489E-2,5.476804E-2,6.2943265E-2,1.1304348E-1,4.494382E-2,7.2289154E-2,6.845514E-2,1.2264151E-1,3.846154E-2,6.4935066E-2,1.0989011E-2,5.6074765E-2,2.1052632E-2,1.7460318E-1,-6.31707E-2,1.0638298E-1,-6.4667365E-5,4.1853018E-2,-3.7906267E-2,5.147059E-2,4.819277E-2,4.784689E-3,4.6728972E-2,7.2164945E-2,1.4285714E-2,5.4065716E-2,-5.889502E-3,7.4235804E-2,1.4042783E-2,6.3089095E-2,1.9974133E-2,5.54847E-2,-9.880894E-3,-4.6005156E-2,2.2229692E-2,-1.870956E-2,3.2091696E-2,-6.0307592E-2,-1.133521E-2,-6.026835E-2,-1.7168527E-2,-5.09005E-2,3.5493392E-2,-5.8453765E-2,-3.0060232E-2],"split_indices":[0,0,0,26,25,7,0,14,4,20,24,5,1,6,0,25,0,0,0,26,19,16,22,22,1,0,0,19,0,0,0,0,0,0,0,0,0,0,0,0,0,0,0,0,0],"split_type":[0,0,0,0,0,0,0,0,0,0,0,0,0,0,0,0,0,0,0,0,0,0,0,0,0,0,0,0,0,0,0,0,0,0,0,0,0,0,0,0,0,0,0,0,0],"sum_hessian":[3.6542695E3,1.8319874E3,1.8222821E3,1.7955729E3,3.641455E1,1.7556576E1,1.8047256E3,1.7927057E3,2.8672543E0,2.9780203E1,6.6343474E0,1.471083E1,2.8457465E0,7.5263016E1,1.7294625E3,1.7904929E3,2.2128093E0,1.4372928E0,1.4299616E0,2.5342724E1,4.437478E0,2.4361782E0,4.198169E0,1.0080151E1,4.630679E0,1.4509617E0,1.3947848E0,7.4068954E1,1.194063E0,1.7878455E3,2.647467E0,2.1734198E1,3.608527E0,3.2676773E0,1.1698009E0,1.1444445E0,1.2917337E0,3.1046174E0,1.0935519E0,7.9104085E0,2.169742E0,1.9011717E0,2.7295074E0,6.065308E1,1.3415873E1],"tree_param":{"num_deleted":"0","num_feature":"27","num_nodes":"45","size_leaf_vector":"1"}},{"base_weights":[-2.4512078E-4,1.2244712E0,-1.2310355E0,1.2406849E0,4.2806756E-1,-6.889576E-1,-1.2405348E0,1.2436483E0,3.6938053E-1,6.250598E-1,-8.561736E-1,-3.018855E-1,-9.829606E-1,-1.0542302E0,-6.2324222E-2,1.2452481E0,-6.244265E-5,8.6765975E-1,-6.2149633E-2,8.615091E-1,-5.9604686E-1,-7.0765577E-3,-5.724476E-2,-5.468242E-1,5.8213425E-1,-1.0639693E0,4.483608E-3,-1.101828E0,2.6404817E-2,6.2316384E-2,1.9403711E-2,5.313781E-2,-5.550206E-4,5.2383672E-2,-9.344913E-3,-4.834678E-2,2.0545356E-2,-5.2208375E-2,2.2193433E-3,5.9895236E-2,-2.025587E-2,-5.6001004E-2,-6.8863365E-3,-5.6575574E-2,1.301263E-2,3.6121532E-2,-3.9109416E-2],"categories":[],"categories_nodes":[],"categories_segments":[],"categories_sizes":[],"default_left":[0,0,0,0,0,0,0,0,0,0,0,0,0,0,0,0,0,0,0,0,0,0,0,0,0,0,0,0,0,0,0,0,0,0,0,0,0,0,0,0,0,0,0,0,0,0,0],"id":18,"left_children":[1,3,5,7,9,11,13,15,17,19,21,23,25,27,-1,29,-1,31,-1,33,35,-1,-1,37,39,41,-1,43,45,-1,-1,-1,-1,-1,-1,-1,-1,-1,-1,-1,-1,-1,-1,-1,-1,-1,-1],"loss_changes":[5.314133E3,2.2286865E1,8.199951E0,4.010742E0,9.841043E0,3.4053764E0,6.0009766E-1,3.4367676E0,6.9361773E0,9.888629E0,9.344137E-1,3.671598E0,1.663414E0,3.1112366E0,0E0,1.1108398E0,0E0,1.067658E0,0E0,5.584963E0,2.5852787E0,0E0,0E0,3.7635605E0,2.8223097E0,7.208462E-1,0E0,2.615944E0,2.5374615E0,0E0,0E0,0E0,0E0,0E0,0E0,0E0,0E0,0E0,0E0,0E0,0E0,0E0,0E0,0E0,0E0,0E0,0E0],"parents":[2147483647,0,0,1,1,2,2,3,3,4,4,5,5,6,6,7,7,8,8,9,9,10,10,11,11,12,12,13,13,15,15,17,17,19,19,20,20,23,23,24,24,25,25,27,27,28,28],"right_children":[2,4,6,8,10,12,14,16,18,20,22,24,26,28,-1,30,-1,32,-1,34,36,-1,-1,38,40,42,-1,44,46,-1,-1,-1,-1,-1,-1,-1,-1,-1,-1,-1,-1,-1,-1,-1,-1,-1,-1],"split_conditions":[6.039489E-2,5.476804E-2,6.473953E-2,1E-1,5.940594E-2,2.112676E-2,6.845514E-2,1.2264151E-1,7.692308E-2,6.4935066E-2,5.076142E-3,7.2164945E-2,1.3235295E-1,1.3725491E-1,-6.2324222E-2,1.0638298E-1,-6.244265E-5,4.0816326E-2,-6.2149633E-2,5.147059E-2,5.2083332E-2,-7.0765577E-3,-5.724476E-2,2.9850746E-2,5.102041E-2,1.23674914E-1,4.483608E-3,1.3235295E-1,8.695652E-3,6.2316384E-2,1.9403711E-2,5.313781E-2,-5.550206E-4,5.2383672E-2,-9.344913E-3,-4.834678E-2,2.0545356E-2,-5.2208375E-2,2.2193433E-3,5.9895236E-2,-2.025587E-2,-5.6001004E-2,-6.8863365E-3,-5.6575574E-2,1.301263E-2,3.6121532E-2,-3.9109416E-2],"split_indices":[0,0,0,26,25,16,0,14,18,20,24,22,5,19,0,25,0,11,0,26,5,0,0,5,6,6,0,5,4,0,0,0,0,0,0,0,0,0,0,0,0,0,0,0,0,0,0],"split_type":[0,0,0,0,0,0,0,0,0,0,0,0,0,0,0,0,0,0,0,0,0,0,0,0,0,0,0,0,0,0,0,0,0,0,0,0,0,0,0,0,0,0,0,0,0,0,0],"sum_hessian":[3.5234358E3,1.7660784E3,1.7573574E3,1.7302941E3,3.5784256E1,3.1531698E1,1.7258258E3,1.7240032E3,6.2910066E0,3.1470255E1,4.313999E0,1.4486364E1,1.7045334E1,5.8922157E1,1.6669036E3,1.7217903E3,2.2128253E0,5.1586723E0,1.1323345E0,2.6611765E1,4.85849E0,1.6701789E0,2.64382E0,1.1642082E1,2.844282E0,1.585592E1,1.1894133E0,5.6417572E1,2.5045822E0,1.7191711E3,2.6191576E0,4.0501122E0,1.1085597E0,2.25995E1,4.0122643E0,3.5797224E0,1.2787678E0,5.906891E0,5.735192E0,1.6202952E0,1.2239867E0,1.4753893E1,1.1020277E0,5.537997E1,1.0376031E0,1.4032459E0,1.1013364E0],"tree_param":{"num_deleted":"0","num_feature":"27","num_nodes":"47","size_leaf_vector":"1"}},{"base_weights":[-2.7887215E-4,1.2087289E0,-1.2148314E0,1.2252715E0,4.126683E-1,-6.6840285E-1,-1.2246064E0,1.228294E0,3.5541743E-1,6.625692E-1,-6.100283E-1,-1.734603E-1,-8.846024E-1,-1.0336493E0,-6.1537858E-2,1.229935E0,-6.0291244E-5,8.4871966E-1,-6.0468923E-2,8.482362E-1,-7.136135E-1,2.3604329E-1,-9.950848E-1,-8.533629E-1,4.3922946E-1,-1.005696E0,2.3098761E-2,-1.0816287E0,2.410764E-2,6.1552107E-2,1.88488E-2,5.2194845E-2,-5.4039207E-4,-1.5814582E-4,5.244866E-2,1.6829486E-3,-5.351851E-2,3.7430167E-2,-2.1981075E-2,-5.8177423E-2,-1.610934E-2,-5.4774273E-2,3.8582669E-3,4.5230035E-2,-4.2520538E-2,-5.6948025E-2,-9.838271E-3,-5.5587646E-2,1.2646032E-2,3.5315182E-2,-3.86587E-2],"categories":[],"categories_nodes":[],"categories_segments":[],"categories_sizes":[],"default_left":[0,0,0,0,0,0,0,0,0,0,0,0,0,0,0,0,0,0,0,0,0,0,0,0,0,0,0,0,0,0,0,0,0,0,0,0,0,0,0,0,0,0,0,0,0,0,0,0,0,0,0],"id":19,"left_children":[1,3,5,7,9,11,13,15,17,19,21,23,25,27,-1,29,-1,31,-1,33,35,37,39,41,43,45,-1,47,49,-1,-1,-1,-1,-1,-1,-1,-1,-1,-1,-1,-1,-1,-1,-1,-1,-1,-1,-1,-1,-1,-1],"loss_changes":[4.987836E3,2.1911133E1,8.232178E0,3.9467773E0,9.646121E0,3.2688513E0,6.816406E-1,3.352295E0,6.5688996E0,8.153105E0,2.7179325E0,4.943359E0,4.054432E0,2.977398E0,0E0,1.1025391E0,0E0,1.0256886E0,0E0,4.5298367E0,1.1169865E0,1.4345859E0,2.406168E-1,1.3322988E0,4.627633E0,1.987278E0,0E0,2.5185242E0,2.4506004E0,0E0,0E0,0E0,0E0,0E0,0E0,0E0,0E0,0E0,0E0,0E0,0E0,0E0,0E0,0E0,0E0,0E0,0E0,0E0,0E0,0E0,0E0],"parents":[2147483647,0,0,1,1,2,2,3,3,4,4,5,5,6,6,7,7,8,8,9,9,10,10,11,11,12,12,13,13,15,15,17,17,19,19,20,20,21,21,22,22,23,23,24,24,25,25,27,27,28,28],"right_children":[2,4,6,8,10,12,14,16,18,20,22,24,26,28,-1,30,-1,32,-1,34,36,38,40,42,44,46,-1,48,50,-1,-1,-1,-1,-1,-1,-1,-1,-1,-1,-1,-1,-1,-1,-1,-1,-1,-1,-1,-1,-1,-1],"split_conditions":[6.039489E-2,5.476804E-2,6.473953E-2,1E-1,6.7226894E-2,4.784689E-3,6.845514E-2,1.2264151E-1,7.692308E-2,8.571429E-2,1.5625E-2,1.8796992E-2,9.677419E-2,1.3725491E-1,-6.1537858E-2,1.0638298E-1,-6.0291244E-5,4.0816326E-2,-6.0468923E-2,5.076142E-3,5.6737587E-2,2.5806451E-2,3.4722224E-2,2.1428572E-2,4.784689E-2,8.77193E-2,2.3098761E-2,1.3235295E-1,1.7094018E-2,6.1552107E-2,1.88488E-2,5.2194845E-2,-5.4039207E-4,-1.5814582E-4,5.244866E-2,1.6829486E-3,-5.351851E-2,3.7430167E-2,-2.1981075E-2,-5.8177423E-2,-1.610934E-2,-5.4774273E-2,3.8582669E-3,4.5230035E-2,-4.2520538E-2,-5.6948025E-2,-9.838271E-3,-5.5587646E-2,1.2646032E-2,3.5315182E-2,-3.86587E-2],"split_indices":[0,0,0,26,11,16,0,14,18,14,10,17,7,19,0,25,0,11,0,17,0,25,8,3,3,22,0,5,10,0,0,0,0,0,0,0,0,0,0,0,0,0,0,0,0,0,0,0,0,0,0],"split_type":[0,0,0,0,0,0,0,0,0,0,0,0,0,0,0,0,0,0,0,0,0,0,0,0,0,0,0,0,0,0,0,0,0,0,0,0,0,0,0,0,0,0,0,0,0,0,0,0,0,0,0],"sum_hessian":[3.394775E3,1.7012731E3,1.6935017E3,1.6661115E3,3.5161648E1,3.0982157E1,1.6625195E3,1.6599313E3,6.1801424E0,2.8539913E1,6.6217337E0,9.96705E0,2.1015106E1,5.715353E1,1.6053661E3,1.6577185E3,2.2128406E0,5.046765E0,1.1333773E0,2.548522E1,3.054694E0,2.1920989E0,4.4296346E0,4.5381947E0,5.428855E0,1.9513468E1,1.5016394E0,5.4651974E1,2.5015566E0,1.6551268E3,2.591603E0,3.9380348E0,1.1087301E0,5.050107E0,2.0435112E1,1.279749E0,1.7749449E0,1.185117E0,1.0069818E0,2.9595382E0,1.4700963E0,3.4605026E0,1.0776919E0,4.2086954E0,1.2201593E0,1.6403196E1,3.1102712E0,5.360883E1,1.0431448E0,1.4095671E0,1.0919895E0],"tree_param":{"num_deleted":"0","num_feature":"27","num_nodes":"51","size_leaf_vector":"1"}},{"base_weights":[-3.245347E-4,1.1939988E0,-1.1996751E0,1.2109214E0,3.9725122E-1,-6.487154E-1,-1.2097538E0,1.2122841E0,-1.8718459E-2,-6.960641E-1,6.1739326E-1,-3.012392E-1,-9.804265E-1,-1.0138836E0,-6.0805947E-2,1.2137415E0,-1.4790771E-2,-9.963149E-1,5.5343374E-3,7.883264E-1,-6.403479E-1,-5.3058815E-1,6.8481076E-1,-1.0858322E0,1.3102666E-2,-1.0622641E0,2.1832503E-2,6.0771156E-2,-5.8215934E-5,-5.5943202E-2,-1.3872938E-2,5.0935276E-2,-1.478574E-2,-1.1076826E-3,-4.7917046E-2,-5.1105857E-2,1.2423107E-4,-4.979599E-3,6.146664E-2,-5.778675E-2,-5.8931485E-3,-5.464269E-2,1.22902375E-2,3.453755E-2,-3.823168E-2],"categories":[],"categories_nodes":[],"categories_segments":[],"categories_sizes":[],"default_left":[0,0,0,0,0,0,0,0,0,0,0,0,0,0,0,0,0,0,0,0,0,0,0,0,0,0,0,0,0,0,0,0,0,0,0,0,0,0,0,0,0,0,0,0,0],"id":20,"left_children":[1,3,5,7,9,11,13,15,-1,17,19,21,23,25,-1,27,-1,29,-1,31,33,35,37,39,-1,41,43,-1,-1,-1,-1,-1,-1,-1,-1,-1,-1,-1,-1,-1,-1,-1,-1,-1,-1],"loss_changes":[4.684904E3,2.1614258E1,8.2771E0,3.9194336E0,8.991094E0,3.3321457E0,7.6342773E-1,3.8828125E0,0E0,1.668262E0,6.984356E0,4.165867E0,2.3351402E0,2.8501472E0,0E0,3.2731934E0,0E0,1.1130524E-1,0E0,7.0395336E0,7.9610455E-1,3.7244732E0,1.664108E0,8.535385E-1,0E0,2.426117E0,2.368193E0,0E0,0E0,0E0,0E0,0E0,0E0,0E0,0E0,0E0,0E0,0E0,0E0,0E0,0E0,0E0,0E0,0E0,0E0],"parents":[2147483647,0,0,1,1,2,2,3,3,4,4,5,5,6,6,7,7,9,9,10,10,11,11,12,12,13,13,15,15,17,17,19,19,20,20,21,21,22,22,23,23,25,25,26,26],"right_children":[2,4,6,8,10,12,14,16,-1,18,20,22,24,26,-1,28,-1,30,-1,32,34,36,38,40,-1,42,44,-1,-1,-1,-1,-1,-1,-1,-1,-1,-1,-1,-1,-1,-1,-1,-1,-1,-1],"split_conditions":[6.039489E-2,5.476804E-2,6.473953E-2,1.375E-1,5.0251256E-3,2.4590164E-2,6.845514E-2,1.25E-1,-1.8718459E-2,5.940594E-2,5.940594E-2,7.2164945E-2,8.6538464E-2,1.3725491E-1,-6.0805947E-2,1.2264151E-1,-1.4790771E-2,3.6697246E-2,5.5343374E-3,5.4347824E-2,5.076142E-3,4.8387095E-2,4.878049E-3,1.23809524E-1,1.3102666E-2,1.3235295E-1,1.724138E-2,6.0771156E-2,-5.8215934E-5,-5.5943202E-2,-1.3872938E-2,5.0935276E-2,-1.478574E-2,-1.1076826E-3,-4.7917046E-2,-5.1105857E-2,1.2423107E-4,-4.979599E-3,6.146664E-2,-5.778675E-2,-5.8931485E-3,-5.464269E-2,1.22902375E-2,3.453755E-2,-3.823168E-2],"split_indices":[0,0,0,4,19,26,0,12,0,23,25,22,21,19,0,14,0,13,0,10,24,5,2,5,0,5,9,0,0,0,0,0,0,0,0,0,0,0,0,0,0,0,0,0,0],"split_type":[0,0,0,0,0,0,0,0,0,0,0,0,0,0,0,0,0,0,0,0,0,0,0,0,0,0,0,0,0,0,0,0,0,0,0,0,0,0,0,0,0,0,0,0,0],"sum_hessian":[3.2686394E3,1.6377544E3,1.630885E3,1.6031836E3,3.4570805E1,3.0471771E1,1.6004132E3,1.6020417E3,1.1418431E0,5.431898E0,2.9138906E1,1.5814159E1,1.4657612E1,5.5416714E1,1.5449966E3,1.60069E3,1.3517685E0,3.7873695E0,1.6445285E0,2.5981161E1,3.1577454E0,1.3204729E1,2.6094306E0,1.3627591E1,1.0300205E0,5.2919117E1,2.497597E0,1.5984772E3,2.2128553E0,2.7603414E0,1.027028E0,2.1477137E1,4.504024E0,1.4359174E0,1.7218279E0,6.392763E0,6.8119655E0,1.4040092E0,1.2054214E0,1.2528832E1,1.0987588E0,5.187063E1,1.0484877E0,1.4154269E0,1.0821701E0],"tree_param":{"num_deleted":"0","num_feature":"27","num_nodes":"45","size_leaf_vector":"1"}},{"base_weights":[-3.7706184E-4,1.1801269E0,-1.185471E0,1.1974922E0,3.8146526E-1,-6.2893564E-1,-1.1958764E0,1.200713E0,3.0777782E-1,6.253542E-1,-5.9603447E-1,-8.6141664E-1,-1.6572164E-1,-9.9484235E-1,-1.2024698E0,1.2024469E0,-5.620651E-5,8.079148E-1,-5.984632E-2,7.9958755E-1,-7.802899E-1,2.2030605E-1,-9.6031415E-1,-4.202983E-1,-5.6730576E-2,-6.856825E-1,2.9877064E-1,-1.0436395E0,1.9577337E-2,-6.022175E-2,-8.3754843E-1,6.0182E-2,1.6561875E-2,5.026692E-2,-1.2397304E-3,4.7031365E-2,-2.2280822E-2,-5.2803554E-2,-2.9340596E-3,3.5405558E-2,-2.0318124E-2,-5.579723E-2,-1.6045785E-2,-3.989456E-2,4.577606E-2,-5.2990284E-2,2.4897106E-2,3.8943537E-2,-4.107894E-2,-5.373588E-2,1.1944898E-2,3.378231E-2,-3.7805878E-2,-5.4509997E-2,3.1004144E-2],"categories":[],"categories_nodes":[],"categories_segments":[],"categories_sizes":[],"default_left":[0,0,0,0,0,0,0,0,0,0,0,0,0,0,0,0,0,0,0,0,0,0,0,0,0,0,0,0,0,0,0,0,0,0,0,0,0,0,0,0,0,0,0,0,0,0,0,0,0,0,0,0,0,0,0],"id":21,"left_children":[1,3,5,7,9,11,13,15,17,19,21,23,25,27,29,31,-1,33,-1,35,37,39,41,43,-1,45,47,49,51,-1,53,-1,-1,-1,-1,-1,-1,-1,-1,-1,-1,-1,-1,-1,-1,-1,-1,-1,-1,-1,-1,-1,-1,-1,-1],"loss_changes":[4.4030103E3,2.1409912E1,8.343018E0,4.0512695E0,8.721453E0,3.1885405E0,8.457031E-1,3.2036133E0,6.1664977E0,7.607476E0,2.4433048E0,1.9766045E0,3.000586E0,2.7288818E0,5.7617188E-2,1.1962891E0,0E0,9.755535E-1,0E0,4.961485E0,6.645603E-1,1.2442576E0,1.7681932E-1,5.4591117E0,0E0,3.0806756E0,4.303105E0,2.338276E0,2.2883794E0,0E0,4.8182316E0,0E0,0E0,0E0,0E0,0E0,0E0,0E0,0E0,0E0,0E0,0E0,0E0,0E0,0E0,0E0,0E0,0E0,0E0,0E0,0E0,0E0,0E0,0E0,0E0],"parents":[2147483647,0,0,1,1,2,2,3,3,4,4,5,5,6,6,7,7,8,8,9,9,10,10,11,11,12,12,13,13,14,14,15,15,17,17,19,19,20,20,21,21,22,22,23,23,25,25,26,26,27,27,28,28,30,30],"right_children":[2,4,6,8,10,12,14,16,18,20,22,24,26,28,30,32,-1,34,-1,36,38,40,42,44,-1,46,48,50,52,-1,54,-1,-1,-1,-1,-1,-1,-1,-1,-1,-1,-1,-1,-1,-1,-1,-1,-1,-1,-1,-1,-1,-1,-1,-1],"split_conditions":[6.039489E-2,5.476804E-2,6.473953E-2,1E-1,6.7226894E-2,5.185185E-2,6.845514E-2,1.2264151E-1,7.692308E-2,8.8E-2,1.5625E-2,2.1505376E-2,1.724138E-2,1.3725491E-1,1.9008264E-1,1.0638298E-1,-5.620651E-5,4.0816326E-2,-5.984632E-2,5.940594E-2,2.1052632E-2,1.1666667E-1,3.4722224E-2,6.896552E-2,-5.6730576E-2,6.4935066E-2,8.421053E-2,1.3235295E-1,8.695652E-3,-6.022175E-2,4.2857144E-2,6.0182E-2,1.6561875E-2,5.026692E-2,-1.2397304E-3,4.7031365E-2,-2.2280822E-2,-5.2803554E-2,-2.9340596E-3,3.5405558E-2,-2.0318124E-2,-5.579723E-2,-1.6045785E-2,-3.989456E-2,4.577606E-2,-5.2990284E-2,2.4897106E-2,3.8943537E-2,-4.107894E-2,-5.373588E-2,1.1944898E-2,3.378231E-2,-3.7805878E-2,-5.4509997E-2,3.1004144E-2],"split_indices":[0,0,0,26,11,7,0,14,18,14,10,26,17,19,19,25,0,11,0,25,21,11,8,22,0,5,3,5,4,0,4,0,0,0,0,0,0,0,0,0,0,0,0,0,0,0,0,0,0,0,0,0,0,0,0],"split_type":[0,0,0,0,0,0,0,0,0,0,0,0,0,0,0,0,0,0,0,0,0,0,0,0,0,0,0,0,0,0,0,0,0,0,0,0,0,0,0,0,0,0,0,0,0,0,0,0,0,0,0,0,0,0,0],"sum_hessian":[3.1452368E3,1.575672E3,1.569565E3,1.5416523E3,3.4019596E1,2.9934574E1,1.5396302E3,1.5357433E3,5.909077E0,2.7514824E1,6.504773E0,1.9358929E1,1.0575645E1,5.371527E1,1.485915E3,1.5335304E3,2.2128696E0,4.7825246E0,1.1265523E0,2.4864021E1,2.6508029E0,2.1289914E0,4.375782E0,8.37483E0,1.0984098E1,4.7651997E0,5.810446E0,5.1222485E1,2.4927866E0,1.4756674E3,1.024769E1,1.5310522E3,2.4782166E0,3.6983812E0,1.0841436E0,2.2554008E1,2.3100114E0,1.5825107E0,1.0682921E0,1.1240547E0,1.0049367E0,2.919796E0,1.455986E0,6.843181E0,1.5316497E0,3.700231E0,1.0649687E0,4.2808027E0,1.5296432E0,5.0168846E1,1.0536387E0,1.4204093E0,1.0723773E0,8.948687E0,1.2990029E0],"tree_param":{"num_deleted":"0","num_feature":"27","num_nodes":"55","size_leaf_vector":"1"}},{"base_weights":[-4.4274278E-4,1.1671842E0,-1.1721565E0,1.1849844E0,3.6650738E-1,-6.10869E-1,-1.18289E0,1.1882771E0,2.958162E-1,-6.7959E-1,5.826522E-1,-1.1116163E0,-3.7797633E-1,-9.7644544E-1,-1.1897254E0,1.1900628E0,-5.427225E-5,7.9099673E-1,-5.8300745E-2,-9.687071E-1,5.1638237E-3,7.480234E-1,-6.0413396E-1,-6.0432293E-2,-9.218436E-3,-5.070516E-1,3.815612E-2,-1.0256704E0,1.7345333E-2,-5.9587248E-2,-8.1961966E-1,5.956461E-2,1.6083835E-2,4.9439114E-2,-1.207265E-3,-5.426181E-2,-1.3571858E-2,4.7577184E-2,-2.0879686E-2,-2.6421255E-4,-4.6166256E-2,-4.440401E-2,-4.523538E-3,-5.286289E-2,1.160968E-2,3.345629E-2,-3.7679333E-2,-5.3806633E-2,2.9779185E-2],"categories":[],"categories_nodes":[],"categories_segments":[],"categories_sizes":[],"default_left":[0,0,0,0,0,0,0,0,0,0,0,0,0,0,0,0,0,0,0,0,0,0,0,0,0,0,0,0,0,0,0,0,0,0,0,0,0,0,0,0,0,0,0,0,0,0,0,0,0],"id":22,"left_children":[1,3,5,7,9,11,13,15,17,19,21,23,25,27,29,31,-1,33,-1,35,-1,37,39,-1,-1,41,-1,43,45,-1,47,-1,-1,-1,-1,-1,-1,-1,-1,-1,-1,-1,-1,-1,-1,-1,-1,-1,-1],"loss_changes":[4.140891E3,2.1171875E1,8.378906E0,3.9892578E0,8.178043E0,3.1268759E0,9.284668E-1,3.1376953E0,5.845645E0,1.538482E0,6.155669E0,5.9949875E-1,3.6678054E0,2.6130638E0,9.1430664E-2,1.190918E0,0E0,9.3902016E-1,0E0,9.0361595E-2,0E0,6.5545025E0,7.8027296E-1,0E0,0E0,3.1914454E0,0E0,2.2545662E0,2.2564642E0,0E0,4.61914E0,0E0,0E0,0E0,0E0,0E0,0E0,0E0,0E0,0E0,0E0,0E0,0E0,0E0,0E0,0E0,0E0,0E0,0E0],"parents":[2147483647,0,0,1,1,2,2,3,3,4,4,5,5,6,6,7,7,8,8,9,9,10,10,11,11,12,12,13,13,14,14,15,15,17,17,19,19,21,21,22,22,25,25,27,27,28,28,30,30],"right_children":[2,4,6,8,10,12,14,16,18,20,22,24,26,28,30,32,-1,34,-1,36,-1,38,40,-1,-1,42,-1,44,46,-1,48,-1,-1,-1,-1,-1,-1,-1,-1,-1,-1,-1,-1,-1,-1,-1,-1,-1,-1],"split_conditions":[6.039489E-2,5.476804E-2,6.473953E-2,1E-1,5.0251256E-3,1.6666668E-2,6.845514E-2,1.2264151E-1,7.692308E-2,5.940594E-2,5.940594E-2,6.790123E-2,1.3235295E-1,1.3725491E-1,1.9008264E-1,1.0638298E-1,-5.427225E-5,4.0816326E-2,-5.8300745E-2,3.6697246E-2,5.1638237E-3,6.363636E-2,5.076142E-3,-6.0432293E-2,-9.218436E-3,1.5037594E-2,3.815612E-2,1.3235295E-1,1.7094018E-2,-5.9587248E-2,4.2857144E-2,5.956461E-2,1.6083835E-2,4.9439114E-2,-1.207265E-3,-5.426181E-2,-1.3571858E-2,4.7577184E-2,-2.0879686E-2,-2.6421255E-4,-4.6166256E-2,-4.440401E-2,-4.523538E-3,-5.286289E-2,1.160968E-2,3.345629E-2,-3.7679333E-2,-5.3806633E-2,2.9779185E-2],"split_indices":[0,0,0,26,19,23,0,14,18,23,25,19,5,19,19,25,0,11,0,13,0,10,24,0,0,2,0,5,10,0,4,0,0,0,0,0,0,0,0,0,0,0,0,0,0,0,0,0,0],"split_type":[0,0,0,0,0,0,0,0,0,0,0,0,0,0,0,0,0,0,0,0,0,0,0,0,0,0,0,0,0,0,0,0,0,0,0,0,0,0,0,0,0,0,0,0,0,0,0,0,0],"sum_hessian":[3.0246914E3,1.5149897E3,1.5097018E3,1.4815723E3,3.3417454E1,2.9415276E1,1.4802865E3,1.4757709E3,5.801401E0,5.355203E0,2.806225E1,8.140067E0,2.127521E1,5.2052055E1,1.4282345E3,1.473558E3,2.2128835E0,4.676264E0,1.1251371E0,3.7375276E0,1.6176755E0,2.495468E1,3.1075706E0,7.094231E0,1.0458354E0,1.96124E1,1.6628089E0,4.95649E1,2.4871552E0,1.4182758E3,9.95872E0,1.4711034E3,2.4546115E0,3.5917466E0,1.0845172E0,2.7256107E0,1.0119169E0,2.1401558E1,3.5531206E0,1.4339062E0,1.6736643E0,9.652156E0,9.960244E0,4.8506298E1,1.0586045E0,1.4192846E0,1.0678706E0,8.633453E0,1.3252671E0],"tree_param":{"num_deleted":"0","num_feature":"27","num_nodes":"49","size_leaf_vector":"1"}},{"base_weights":[-5.068568E-4,1.1549853E0,-1.1595758E0,1.176361E0,4.5994413E-1,-5.919771E-1,-1.170712E0,1.1780988E0,-9.730532E-3,6.461514E-1,-9.540619E-1,-2.1732861E-1,-8.920847E-1,-9.5861274E-1,-1.177804E0,1.1792063E0,-1.5337545E-3,8.1620413E-1,-8.2112366E-1,-8.094671E-3,-6.711087E-2,-4.5282492E-1,5.866978E-1,-9.765405E-1,5.1509156E-3,-1.0654947E0,-4.068191E-1,-5.8994066E-2,-8.022411E-1,5.902024E-2,6.783783E-3,-7.6590874E-3,4.8391845E-2,-9.913276E-3,-5.776617E-2,-4.7744405E-2,4.905747E-3,5.5838764E-2,-1.7367544E-2,-5.1880687E-2,-4.49435E-3,-5.430782E-2,-5.218447E-3,2.9251376E-2,-3.9107133E-2,-5.3131964E-2,2.8610338E-2],"categories":[],"categories_nodes":[],"categories_segments":[],"categories_sizes":[],"default_left":[0,0,0,0,0,0,0,0,0,0,0,0,0,0,0,0,0,0,0,0,0,0,0,0,0,0,0,0,0,0,0,0,0,0,0,0,0,0,0,0,0,0,0,0,0,0,0],"id":23,"left_children":[1,3,5,7,9,11,13,15,-1,17,19,21,23,25,27,29,-1,31,33,-1,-1,35,37,39,-1,41,43,-1,45,-1,-1,-1,-1,-1,-1,-1,-1,-1,-1,-1,-1,-1,-1,-1,-1,-1,-1],"loss_changes":[3.8964417E3,2.110437E1,8.487427E0,3.595337E0,1.2494347E1,3.175869E0,1.012207E0,1.9249268E0,0E0,1.0765215E1,1.5209723E0,3.0399508E0,1.4720583E0,2.599697E0,1.2463379E-1,1.6033936E0,0E0,5.551363E0,7.493975E-1,0E0,0E0,3.3844929E0,2.2470338E0,7.264385E-1,0E0,7.299614E-1,4.1664453E0,0E0,4.4294047E0,0E0,0E0,0E0,0E0,0E0,0E0,0E0,0E0,0E0,0E0,0E0,0E0,0E0,0E0,0E0,0E0,0E0,0E0],"parents":[2147483647,0,0,1,1,2,2,3,3,4,4,5,5,6,6,7,7,9,9,10,10,11,11,12,12,13,13,14,14,15,15,17,17,18,18,21,21,22,22,23,23,25,25,26,26,28,28],"right_children":[2,4,6,8,10,12,14,16,-1,18,20,22,24,26,28,30,-1,32,34,-1,-1,36,38,40,-1,42,44,-1,46,-1,-1,-1,-1,-1,-1,-1,-1,-1,-1,-1,-1,-1,-1,-1,-1,-1,-1],"split_conditions":[6.039489E-2,5.3333335E-2,6.473953E-2,1.1666667E-1,6E-2,2.112676E-2,6.845514E-2,1.3366337E-1,-9.730532E-3,8.8E-2,1.8691588E-2,7.2164945E-2,1.3235295E-1,7.4235804E-2,1.9008264E-1,1.3372093E-1,-1.5337545E-3,5.0251256E-3,1.0752688E-2,-8.094671E-3,-6.711087E-2,2.9850746E-2,5.102041E-2,1.23674914E-1,5.1509156E-3,1.5068494E-1,4.950495E-3,-5.8994066E-2,4.2857144E-2,5.902024E-2,6.783783E-3,-7.6590874E-3,4.8391845E-2,-9.913276E-3,-5.776617E-2,-4.7744405E-2,4.905747E-3,5.5838764E-2,-1.7367544E-2,-5.1880687E-2,-4.49435E-3,-5.430782E-2,-5.218447E-3,2.9251376E-2,-3.9107133E-2,-5.3131964E-2,2.8610338E-2],"split_indices":[0,0,0,26,25,16,0,4,0,14,24,22,5,19,19,15,0,19,8,0,0,5,6,6,0,3,26,0,4,0,0,0,0,0,0,0,0,0,0,0,0,0,0,0,0,0,0],"split_type":[0,0,0,0,0,0,0,0,0,0,0,0,0,0,0,0,0,0,0,0,0,0,0,0,0,0,0,0,0,0,0,0,0,0,0,0,0,0,0,0,0,0,0,0,0,0,0],"sum_hessian":[2.907323E3,1.4559097E3,1.4514133E3,1.4117979E3,4.4111877E1,2.8970634E1,1.4224427E3,1.410151E3,1.6468067E0,3.9458683E1,4.653191E0,1.3651961E1,1.5318673E1,5.0429714E1,1.372013E3,1.4088848E3,1.2662427E0,3.5758152E1,3.700532E0,1.9962403E0,2.656951E0,1.0897058E1,2.7549038E0,1.4137461E1,1.1812123E0,4.1466686E1,8.963027E0,1.3623359E3,9.677051E0,1.4071373E3,1.7473986E0,4.8353887E0,3.0922764E1,1.8485634E0,1.8519685E0,5.3178153E0,5.579242E0,1.6327059E0,1.1221977E0,1.306713E1,1.0703301E0,4.046667E1,1.0000151E0,2.307197E0,6.6558294E0,8.326418E0,1.3506334E0],"tree_param":{"num_deleted":"0","num_feature":"27","num_nodes":"47","size_leaf_vector":"1"}},{"base_weights":[-5.8651576E-4,1.1434298E0,-1.1477317E0,1.1654243E0,4.4352034E-1,-5.745966E-1,-1.1592393E0,1.1672108E0,-9.422586E-3,6.2634116E-1,-9.262561E-1,-2.3865885E-1,-9.1073453E-1,-9.406759E-1,-1.1666342E0,1.1683534E0,-1.4904565E-3,7.944293E-1,-7.971053E-1,-1.2042289E0,1.1750417E-3,-7.983538E-1,1.4103101E-1,-1.0217365E0,1.4129179E-2,-1.0497704E0,-3.9155915E-1,-5.843866E-2,-7.8536624E-1,5.8485508E-2,7.5647323E-3,4.6798233E-2,-1.0451837E-2,-5.0527293E-2,-1.247843E-3,-2.2295905E-2,-7.694905E-2,-4.9490623E-2,3.5526452E-3,4.8122294E-2,-2.8045187E-2,-5.476923E-2,-4.4426E-3,-5.4481845E-2,-2.0115528E-2,-4.0832784E-2,2.2924893E-2,-5.2483167E-2,2.749457E-2],"categories":[],"categories_nodes":[],"categories_segments":[],"categories_sizes":[],"default_left":[0,0,0,0,0,0,0,0,0,0,0,0,0,0,0,0,0,0,0,0,0,0,0,0,0,0,0,0,0,0,0,0,0,0,0,0,0,0,0,0,0,0,0,0,0,0,0,0,0],"id":24,"left_children":[1,3,5,7,9,11,13,15,-1,17,19,21,23,25,27,29,-1,31,33,35,-1,37,39,41,-1,43,45,-1,47,-1,-1,-1,-1,-1,-1,-1,-1,-1,-1,-1,-1,-1,-1,-1,-1,-1,-1,-1,-1],"loss_changes":[3.6682378E3,2.1027222E1,8.538818E0,3.5002441E0,1.1662251E1,3.1086197E0,1.1125488E0,1.8876953E0,0E0,1.0117463E1,1.5105181E0,3.531129E0,2.1918478E0,2.57872E0,1.5710449E-1,1.6903076E0,0E0,5.301981E0,7.470021E-1,4.2109823E-1,0E0,1.177608E0,6.556061E0,8.206682E-1,0E0,6.209831E-1,3.939879E0,0E0,4.248445E0,0E0,0E0,0E0,0E0,0E0,0E0,0E0,0E0,0E0,0E0,0E0,0E0,0E0,0E0,0E0,0E0,0E0,0E0,0E0,0E0],"parents":[2147483647,0,0,1,1,2,2,3,3,4,4,5,5,6,6,7,7,9,9,10,10,11,11,12,12,13,13,14,14,15,15,17,17,18,18,19,19,21,21,22,22,23,23,25,25,26,26,28,28],"right_children":[2,4,6,8,10,12,14,16,-1,18,20,22,24,26,28,30,-1,32,34,36,-1,38,40,42,-1,44,46,-1,48,-1,-1,-1,-1,-1,-1,-1,-1,-1,-1,-1,-1,-1,-1,-1,-1,-1,-1,-1,-1],"split_conditions":[6.039489E-2,5.3333335E-2,6.473953E-2,1.1666667E-1,6E-2,2.4590164E-2,6.845514E-2,1.3366337E-1,-9.422586E-3,8.8E-2,7.971015E-2,5E-3,8.6538464E-2,7.4235804E-2,1.9008264E-1,1.2264151E-1,-1.4904565E-3,6.349207E-2,3.6036037E-2,2.7972028E-2,1.1750417E-3,3.4883723E-2,4.2857144E-2,1.23809524E-1,1.4129179E-2,9.7222224E-2,2.4271844E-2,-5.843866E-2,4.2857144E-2,5.8485508E-2,7.5647323E-3,4.6798233E-2,-1.0451837E-2,-5.0527293E-2,-1.247843E-3,-2.2295905E-2,-7.694905E-2,-4.9490623E-2,3.5526452E-3,4.8122294E-2,-2.8045187E-2,-5.476923E-2,-4.4426E-3,-5.4481845E-2,-2.0115528E-2,-4.0832784E-2,2.2924893E-2,-5.2483167E-2,2.749457E-2],"split_indices":[0,0,0,26,25,26,0,4,0,14,23,1,21,19,19,14,0,16,7,8,0,14,1,5,0,15,12,0,4,0,0,0,0,0,0,0,0,0,0,0,0,0,0,0,0,0,0,0,0],"split_type":[0,0,0,0,0,0,0,0,0,0,0,0,0,0,0,0,0,0,0,0,0,0,0,0,0,0,0,0,0,0,0,0,0,0,0,0,0,0,0,0,0,0,0,0,0,0,0,0,0],"sum_hessian":[2.7931614E3,1.3984896E3,1.3946719E3,1.3552362E3,4.3253403E1,2.8453884E1,1.366218E3,1.353588E3,1.648239E0,3.8639076E1,4.6143246E0,1.5086435E1,1.336745E1,4.890806E1,1.3173099E3,1.352321E3,1.2669041E0,3.4953484E1,3.685595E0,3.362316E0,1.2520088E0,5.652106E0,9.434329E0,1.2361383E1,1.006066E0,4.004122E1,8.866838E0,1.307907E3,9.402937E0,1.3503696E3,1.9513978E0,3.0691782E1,4.2617E0,2.6455545E0,1.0400405E0,1.7439189E0,1.6183971E0,4.51855E0,1.1335558E0,4.1761737E0,5.2581553E0,1.1295455E1,1.0659288E0,3.707541E1,2.9658096E0,5.937104E0,2.9297338E0,8.027821E0,1.3751166E0],"tree_param":{"num_deleted":"0","num_feature":"27","num_nodes":"49","size_leaf_vector":"1"}},{"base_weights":[-6.869931E-4,1.1325105E0,-1.1365654E0,1.155199E0,4.2694E-1,-7.113291E-1,-1.1532274E0,1.1570374E0,-9.124592E-3,6.071155E-1,-9.0057826E-1,-7.6332337E-1,2.960207E-2,-1.1554288E0,-7.2711855E-1,1.1582175E0,-1.4483931E-3,7.728782E-1,-7.700878E-1,-6.7877485E-3,-6.4206235E-2,-8.236709E-1,2.305477E-2,-5.78801E-2,-7.689548E-1,3.4881473E-2,-5.1174637E-2,5.79813E-2,7.3198536E-3,-8.721682E-3,4.638222E-2,-8.599909E-3,-5.5184394E-2,-4.421038E-2,1.00836735E-2,-5.185775E-2,2.6429025E-2],"categories":[],"categories_nodes":[],"categories_segments":[],"categories_sizes":[],"default_left":[0,0,0,0,0,0,0,0,0,0,0,0,0,0,0,0,0,0,0,0,0,0,0,0,0,0,0,0,0,0,0,0,0,0,0,0,0],"id":25,"left_children":[1,3,5,7,9,11,13,15,-1,17,19,21,-1,23,25,27,-1,29,31,-1,-1,33,-1,-1,35,-1,-1,-1,-1,-1,-1,-1,-1,-1,-1,-1,-1],"loss_changes":[3.4551272E3,2.1017578E1,8.6779785E0,3.4111328E0,1.0939209E1,4.0541706E0,3.6816406E-1,1.8526611E0,0E0,9.465167E0,1.4669514E0,4.18911E0,0E0,1.8493652E-1,4.649089E0,1.6806641E0,0E0,5.3194847E0,7.4294806E-1,0E0,0E0,3.250267E0,0E0,0E0,4.0757337E0,0E0,0E0,0E0,0E0,0E0,0E0,0E0,0E0,0E0,0E0,0E0,0E0],"parents":[2147483647,0,0,1,1,2,2,3,3,4,4,5,5,6,6,7,7,9,9,10,10,11,11,13,13,14,14,15,15,17,17,18,18,21,21,24,24],"right_children":[2,4,6,8,10,12,14,16,-1,18,20,22,-1,24,26,28,-1,30,32,-1,-1,34,-1,-1,36,-1,-1,-1,-1,-1,-1,-1,-1,-1,-1,-1,-1],"split_conditions":[6.039489E-2,5.3333335E-2,6.701299E-2,1.1666667E-1,6E-2,1.6494845E-1,1.8E-1,1.3366337E-1,-9.124592E-3,8.8E-2,1.8691588E-2,1.5E-1,2.960207E-2,1.9008264E-1,5.050505E-3,1.2264151E-1,-1.4483931E-3,5.0251256E-3,1.0752688E-2,-6.7877485E-3,-6.4206235E-2,1.3725491E-1,2.305477E-2,-5.78801E-2,4.2857144E-2,3.4881473E-2,-5.1174637E-2,5.79813E-2,7.3198536E-3,-8.721682E-3,4.638222E-2,-8.599909E-3,-5.5184394E-2,-4.421038E-2,1.00836735E-2,-5.185775E-2,2.6429025E-2],"split_indices":[0,0,0,26,25,6,5,4,0,14,24,5,0,19,8,14,0,19,8,0,0,19,0,0,4,0,0,0,0,0,0,0,0,0,0,0,0],"split_type":[0,0,0,0,0,0,0,0,0,0,0,0,0,0,0,0,0,0,0,0,0,0,0,0,0,0,0,0,0,0,0,0,0,0,0,0,0],"sum_hessian":[2.6822722E3,1.3427222E3,1.33955E3,1.300273E3,4.244922E1,5.215581E1,1.2873942E3,1.2986234E3,1.6495869E0,3.7854183E1,4.595035E0,5.055347E1,1.6023403E0,1.2790751E3,8.319104E0,1.2973558E3,1.2675459E0,3.4179127E1,3.675057E0,1.9869131E0,2.6081219E0,4.8490814E1,2.0626543E0,1.2699386E3,9.136558E0,1.199399E0,7.1197047E0,1.2954065E3,1.949354E0,4.7819705E0,2.9397158E1,1.8585564E0,1.8165005E0,4.5917477E1,2.5733376E0,7.737825E0,1.3987333E0],"tree_param":{"num_deleted":"0","num_feature":"27","num_nodes":"37","size_leaf_vector":"1"}},{"base_weights":[-7.1950787E-4,1.1222177E0,-1.1258718E0,1.145595E0,4.1150418E-1,-6.914663E-1,-1.1432214E0,1.1474882E0,-8.8362135E-3,5.883566E-1,-8.7476075E-1,-7.431097E-1,2.8699566E-2,-1.1454908E0,-7.1082515E-1,1.1487083E0,-1.4075149E-3,7.52109E-1,-7.48319E-1,-1.1487125E0,2.0002897E-3,-8.030758E-1,2.229045E-2,-5.7386577E-2,-7.529705E-1,3.3503834E-2,-5.0575174E-2,5.750339E-2,3.5959985E-3,4.4808064E-2,-1.1329859E-2,-8.312087E-3,-5.3822663E-2,-2.055441E-2,-7.356137E-2,-4.317943E-2,9.70235E-3,-5.125341E-2,2.5410993E-2],"categories":[],"categories_nodes":[],"categories_segments":[],"categories_sizes":[],"default_left":[0,0,0,0,0,0,0,0,0,0,0,0,0,0,0,0,0,0,0,0,0,0,0,0,0,0,0,0,0,0,0,0,0,0,0,0,0,0,0],"id":26,"left_children":[1,3,5,7,9,11,13,15,-1,17,19,21,-1,23,25,27,-1,29,31,33,-1,35,-1,-1,37,-1,-1,-1,-1,-1,-1,-1,-1,-1,-1,-1,-1,-1,-1],"loss_changes":[3.2555554E3,2.0954712E1,8.90979E0,3.3271484E0,1.0211712E1,3.8222694E0,3.988037E-1,1.8200684E0,0E0,8.896496E0,1.4379897E0,3.94833E0,0E0,2.1582031E-1,4.4515886E0,1.7398682E0,0E0,5.0553455E0,7.1043754E-1,4.2011118E-1,0E0,3.081787E0,0E0,0E0,3.9107776E0,0E0,0E0,0E0,0E0,0E0,0E0,0E0,0E0,0E0,0E0,0E0,0E0,0E0,0E0],"parents":[2147483647,0,0,1,1,2,2,3,3,4,4,5,5,6,6,7,7,9,9,10,10,11,11,13,13,14,14,15,15,17,17,18,18,19,19,21,21,24,24],"right_children":[2,4,6,8,10,12,14,16,-1,18,20,22,-1,24,26,28,-1,30,32,34,-1,36,-1,-1,38,-1,-1,-1,-1,-1,-1,-1,-1,-1,-1,-1,-1,-1,-1],"split_conditions":[6.039489E-2,5.3333335E-2,6.701299E-2,1.1666667E-1,6E-2,1.6494845E-1,1.8E-1,1.3366337E-1,-8.8362135E-3,8.8E-2,7.971015E-2,1.5E-1,2.8699566E-2,1.9008264E-1,5.050505E-3,1.3372093E-1,-1.4075149E-3,6.349207E-2,1.0752688E-2,2.7972028E-2,2.0002897E-3,1.3725491E-1,2.229045E-2,-5.7386577E-2,4.2857144E-2,3.3503834E-2,-5.0575174E-2,5.750339E-2,3.5959985E-3,4.4808064E-2,-1.1329859E-2,-8.312087E-3,-5.3822663E-2,-2.055441E-2,-7.356137E-2,-4.317943E-2,9.70235E-3,-5.125341E-2,2.5410993E-2],"split_indices":[0,0,0,26,25,6,5,4,0,14,23,5,0,19,8,15,0,16,8,8,0,19,0,0,4,0,0,0,0,0,0,0,0,0,0,0,0,0,0],"split_type":[0,0,0,0,0,0,0,0,0,0,0,0,0,0,0,0,0,0,0,0,0,0,0,0,0,0,0,0,0,0,0,0,0,0,0,0,0,0,0],"sum_hessian":[2.5746672E3,1.2886034E3,1.2860638E3,1.2469751E3,4.162829E1,5.0960205E1,1.2351036E3,1.2453242E3,1.6508557E0,3.7073524E1,4.5547643E0,4.935865E1,1.6015565E0,1.2270146E3,8.088965E0,1.244056E3,1.2681689E0,3.3417027E1,3.6564977E0,3.308269E0,1.2464952E0,4.7297607E1,2.0610406E0,1.2181366E3,8.878041E0,1.2266904E0,6.862275E0,1.2424194E3,1.6366372E0,2.9203072E1,4.2139544E0,1.8613236E0,1.7951741E0,1.698427E0,1.609842E0,4.4717728E1,2.5798833E0,7.456539E0,1.4215024E0],"tree_param":{"num_deleted":"0","num_feature":"27","num_nodes":"39","size_leaf_vector":"1"}},{"base_weights":[-7.6604914E-4,1.1123768E0,-1.1157182E0,1.1365223E0,3.9563274E-1,-6.72064E-1,-1.1337885E0,1.1398684E0,2.2916839E-1,5.6985015E-1,-8.509919E-1,-7.2334254E-1,2.78301E-2,-1.1361297E0,-6.949484E-1,1.141449E0,5.451754E-3,-3.836764E-2,4.5193743E-2,7.31497E-1,-7.2751147E-1,-5.59718E-3,-6.151068E-2,-7.8914565E-1,3.4447044E-1,-5.6922097E-2,-7.373817E-1,3.2189175E-2,-4.9993467E-2,5.7150234E-2,9.06786E-3,-9.668239E-3,4.4465773E-2,-4.6785615E-2,-2.2449972E-4,-4.3542318E-2,2.0833148E-3,5.163824E-2,-2.038449E-2,-5.0668087E-2,2.4437955E-2],"categories":[],"categories_nodes":[],"categories_segments":[],"categories_sizes":[],"default_left":[0,0,0,0,0,0,0,0,0,0,0,0,0,0,0,0,0,0,0,0,0,0,0,0,0,0,0,0,0,0,0,0,0,0,0,0,0,0,0,0,0],"id":27,"left_children":[1,3,5,7,9,11,13,15,17,19,21,23,-1,25,27,29,-1,-1,-1,31,33,-1,-1,35,37,-1,39,-1,-1,-1,-1,-1,-1,-1,-1,-1,-1,-1,-1,-1,-1],"loss_changes":[3.0686155E3,2.096228E1,9.140747E0,3.3712158E0,9.575329E0,3.603138E0,4.284668E-1,1.8173828E0,4.490714E0,8.35925E0,1.4130468E0,3.7287807E0,0E0,2.4621582E-1,4.2629004E0,1.5698242E0,0E0,0E0,0E0,5.0887966E0,6.937351E-1,0E0,0E0,3.2025452E0,2.2599213E0,0E0,3.7531285E0,0E0,0E0,0E0,0E0,0E0,0E0,0E0,0E0,0E0,0E0,0E0,0E0,0E0,0E0],"parents":[2147483647,0,0,1,1,2,2,3,3,4,4,5,5,6,6,7,7,8,8,9,9,10,10,11,11,13,13,14,14,15,15,19,19,20,20,23,23,24,24,26,26],"right_children":[2,4,6,8,10,12,14,16,18,20,22,24,-1,26,28,30,-1,-1,-1,32,34,-1,-1,36,38,-1,40,-1,-1,-1,-1,-1,-1,-1,-1,-1,-1,-1,-1,-1,-1],"split_conditions":[6.039489E-2,5.3333335E-2,6.701299E-2,1E-1,6E-2,1.6494845E-1,1.8E-1,1.2264151E-1,5.076142E-3,8.8E-2,1.8691588E-2,1.4285715E-1,2.78301E-2,1.9008264E-1,5.050505E-3,1.0638298E-1,5.451754E-3,-3.836764E-2,4.5193743E-2,5.0251256E-3,3.6036037E-2,-5.59718E-3,-6.151068E-2,1.2290503E-1,1.8072288E-2,-5.6922097E-2,4.2857144E-2,3.2189175E-2,-4.9993467E-2,5.7150234E-2,9.06786E-3,-9.668239E-3,4.4465773E-2,-4.6785615E-2,-2.2449972E-4,-4.3542318E-2,2.0833148E-3,5.163824E-2,-2.038449E-2,-5.0668087E-2,2.4437955E-2],"split_indices":[0,0,0,26,25,6,5,14,24,14,24,5,0,19,8,25,0,0,0,19,7,0,0,23,18,0,4,0,0,0,0,0,0,0,0,0,0,0,0,0,0],"split_type":[0,0,0,0,0,0,0,0,0,0,0,0,0,0,0,0,0,0,0,0,0,0,0,0,0,0,0,0,0,0,0,0,0,0,0,0,0,0,0,0,0],"sum_hessian":[2.4704944E3,1.2362515E3,1.2342429E3,1.1953956E3,4.0855774E1,4.979865E1,1.1844443E3,1.1907482E3,4.647461E0,3.632254E1,4.5332355E0,4.8198364E1,1.6002847E0,1.1765782E3,7.8660855E0,1.188818E3,1.9301705E0,1.8208327E0,2.8266284E0,3.2686123E1,3.636415E0,1.976505E0,2.5567307E0,4.564641E1,2.551953E0,1.1679508E3,8.627455E0,1.253106E0,6.61298E0,1.1867046E3,2.1134176E0,4.731708E0,2.7954416E1,2.594993E0,1.0414219E0,4.1515644E1,4.1307683E0,1.137747E0,1.414206E0,7.1840115E0,1.4434434E0],"tree_param":{"num_deleted":"0","num_feature":"27","num_nodes":"41","size_leaf_vector":"1"}},{"base_weights":[-7.851514E-4,1.1031348E0,-1.1060437E0,1.1280363E0,3.8135862E-1,-6.529109E-1,-1.1248813E0,1.13147E0,2.2217892E-1,5.5230504E-1,-8.2690054E-1,-7.037898E-1,2.6991932E-2,-1.1272982E0,-6.7946327E-1,1.1331129E0,5.275479E-3,-3.701966E-2,4.450192E-2,7.116076E-1,-7.036198E-1,-6.496776E-2,-1.9904579E-1,-7.633429E-1,2.1230461E-2,-5.6484282E-2,-7.221606E-1,3.0547664E-2,-4.955193E-2,5.6736287E-2,8.796233E-3,4.372766E-2,-1.0299439E-2,-7.143592E-3,-5.1620334E-2,1.840338E-2,-3.6930986E-2,-4.217876E-2,1.9977952E-3,-5.009991E-2,2.3507526E-2],"categories":[],"categories_nodes":[],"categories_segments":[],"categories_sizes":[],"default_left":[0,0,0,0,0,0,0,0,0,0,0,0,0,0,0,0,0,0,0,0,0,0,0,0,0,0,0,0,0,0,0,0,0,0,0,0,0,0,0,0,0],"id":28,"left_children":[1,3,5,7,9,11,13,15,17,19,21,23,-1,25,27,29,-1,-1,-1,31,33,-1,35,37,-1,-1,39,-1,-1,-1,-1,-1,-1,-1,-1,-1,-1,-1,-1,-1,-1],"loss_changes":[2.8936978E3,2.0896118E1,9.381592E0,3.3145752E0,8.942066E0,3.395052E0,4.5739746E-1,1.8052979E0,4.2420707E0,7.8212347E0,1.3705859E0,3.5554562E0,0E0,2.7600098E-1,4.083496E0,1.5601807E0,0E0,0E0,0E0,5.109474E0,7.0454E-1,0E0,1.3548656E0,3.000513E0,0E0,0E0,3.6023684E0,0E0,0E0,0E0,0E0,0E0,0E0,0E0,0E0,0E0,0E0,0E0,0E0,0E0,0E0],"parents":[2147483647,0,0,1,1,2,2,3,3,4,4,5,5,6,6,7,7,8,8,9,9,10,10,11,11,13,13,14,14,15,15,19,19,20,20,22,22,23,23,26,26],"right_children":[2,4,6,8,10,12,14,16,18,20,22,24,-1,26,28,30,-1,-1,-1,32,34,-1,36,38,-1,-1,40,-1,-1,-1,-1,-1,-1,-1,-1,-1,-1,-1,-1,-1,-1],"split_conditions":[6.039489E-2,5.3333335E-2,6.701299E-2,1E-1,6E-2,1.6494845E-1,1.8E-1,1.2264151E-1,5.076142E-3,8.8E-2,2.586207E-2,1.5E-1,2.6991932E-2,1.9008264E-1,4.672897E-3,1.0638298E-1,5.275479E-3,-3.701966E-2,4.450192E-2,6.7226894E-2,1.0752688E-2,-6.496776E-2,6.557377E-2,1.2290503E-1,2.1230461E-2,-5.6484282E-2,4.2857144E-2,3.0547664E-2,-4.955193E-2,5.6736287E-2,8.796233E-3,4.372766E-2,-1.0299439E-2,-7.143592E-3,-5.1620334E-2,1.840338E-2,-3.6930986E-2,-4.217876E-2,1.9977952E-3,-5.009991E-2,2.3507526E-2],"split_indices":[0,0,0,26,25,6,5,14,24,14,2,5,0,19,25,25,0,0,0,11,8,0,11,23,0,0,4,0,0,0,0,0,0,0,0,0,0,0,0,0,0],"split_type":[0,0,0,0,0,0,0,0,0,0,0,0,0,0,0,0,0,0,0,0,0,0,0,0,0,0,0,0,0,0,0,0,0,0,0,0,0,0,0,0,0],"sum_hessian":[2.3696562E3,1.1855471E3,1.1841093E3,1.1454652E3,4.0081882E1,4.8684086E1,1.1354252E3,1.1408916E3,4.5736494E0,3.558951E1,4.492369E0,4.708551E1,1.5985737E0,1.1277747E3,7.6504517E0,1.1389631E3,1.92839E0,1.8289768E0,2.7446728E0,3.196806E1,3.6214542E0,1.9531373E0,2.539232E0,4.5032368E1,2.0531418E0,1.1193899E3,8.384822E0,1.3010764E0,6.3493752E0,1.1368622E3,2.1009488E0,2.7187115E1,4.780944E0,1.8687806E0,1.7526736E0,1.3929949E0,1.1462371E0,4.0897453E1,4.134917E0,6.920244E0,1.4645774E0],"tree_param":{"num_deleted":"0","num_feature":"27","num_nodes":"41","size_leaf_vector":"1"}},{"base_weights":[-8.2273217E-4,1.094324E0,-1.0968052E0,1.1200366E0,3.6681196E-1,-6.341299E-1,-1.1164541E0,1.123562E0,2.1555528E-1,5.352128E-1,-8.045287E-1,-3.3855927E-1,-8.920613E-1,-1.1189532E0,-6.641728E-1,1.1251048E0,9.4280625E-4,-3.57271E-2,4.382843E-2,-8.024158E-2,8.676192E-1,-1.0765345E0,3.551701E-3,-1.1593595E-1,-8.7753785E-1,-9.721151E-1,1.1094816E-2,-5.6071002E-2,-7.072825E-1,3.1051079E-2,-4.8956204E-2,5.6308415E-2,9.704948E-3,1.428912E-2,-4.8781127E-2,5.120864E-2,3.6900372E-3,-1.8342575E-2,-6.899943E-2,4.052625E-2,-2.4479778E-2,-4.9038228E-2,-6.728115E-3,-5.1945228E-2,-4.4108112E-4,-4.9547162E-2,2.261746E-2],"categories":[],"categories_nodes":[],"categories_segments":[],"categories_sizes":[],"default_left":[0,0,0,0,0,0,0,0,0,0,0,0,0,0,0,0,0,0,0,0,0,0,0,0,0,0,0,0,0,0,0,0,0,0,0,0,0,0,0,0,0,0,0,0,0,0,0],"id":29,"left_children":[1,3,5,7,9,11,13,15,17,19,21,23,25,27,29,31,-1,-1,-1,33,35,37,-1,39,41,43,-1,-1,45,-1,-1,-1,-1,-1,-1,-1,-1,-1,-1,-1,-1,-1,-1,-1,-1,-1,-1],"loss_changes":[2.729642E3,2.0868164E1,9.62561E0,3.2596436E0,8.383657E0,3.4046593E0,4.8779297E-1,1.8427734E0,4.008566E0,7.4041166E0,1.3785799E0,2.8102503E0,2.4764843E0,3.0529785E-1,4.026366E0,8.626709E-1,0E0,0E0,0E0,4.699278E0,2.8278847E0,4.054351E-1,0E0,6.741287E0,4.0042353E-1,1.5245075E0,0E0,0E0,3.4581141E0,0E0,0E0,0E0,0E0,0E0,0E0,0E0,0E0,0E0,0E0,0E0,0E0,0E0,0E0,0E0,0E0,0E0,0E0],"parents":[2147483647,0,0,1,1,2,2,3,3,4,4,5,5,6,6,7,7,8,8,9,9,10,10,11,11,12,12,13,13,14,14,15,15,19,19,20,20,21,21,23,23,24,24,25,25,28,28],"right_children":[2,4,6,8,10,12,14,16,18,20,22,24,26,28,30,32,-1,-1,-1,34,36,38,-1,40,42,44,-1,-1,46,-1,-1,-1,-1,-1,-1,-1,-1,-1,-1,-1,-1,-1,-1,-1,-1,-1,-1],"split_conditions":[6.039489E-2,5.3333335E-2,6.701299E-2,1E-1,6E-2,2.112676E-2,1.8E-1,1.3372093E-1,5.076142E-3,3.726708E-2,7.971015E-2,5.172414E-2,1.2195122E-1,1.9008264E-1,5.050505E-3,1.3432837E-1,9.4280625E-4,-3.57271E-2,4.382843E-2,4.8387095E-2,8.695652E-2,2.7972028E-2,3.551701E-3,4.950495E-3,1.4285715E-1,1.4201184E-1,1.1094816E-2,-5.6071002E-2,4.2857144E-2,3.1051079E-2,-4.8956204E-2,5.6308415E-2,9.704948E-3,1.428912E-2,-4.8781127E-2,5.120864E-2,3.6900372E-3,-1.8342575E-2,-6.899943E-2,4.052625E-2,-2.4479778E-2,-4.9038228E-2,-6.728115E-3,-5.1945228E-2,-4.4108112E-4,-4.9547162E-2,2.261746E-2],"split_indices":[0,0,0,26,25,16,5,15,24,19,23,14,1,19,8,14,0,0,0,16,23,8,0,10,14,6,0,0,4,0,0,0,0,0,0,0,0,0,0,0,0,0,0,0,0,0,0],"split_type":[0,0,0,0,0,0,0,0,0,0,0,0,0,0,0,0,0,0,0,0,0,0,0,0,0,0,0,0,0,0,0,0,0,0,0,0,0,0,0,0,0,0,0,0,0,0,0],"sum_hessian":[2.272206E3,1.136537E3,1.135669E3,1.0972183E3,3.9318737E1,4.7620453E1,1.0880485E3,1.092717E3,4.501276E0,3.4851322E1,4.4674153E0,2.3268753E1,2.43517E1,1.0806035E3,7.444992E0,1.0911747E3,1.5423822E0,1.8363743E0,2.6649015E0,1.2488086E1,2.2363235E1,3.2333846E0,1.2340306E0,1.7326996E1,5.941756E0,2.2837809E1,1.5138915E0,1.0724534E3,8.150127E0,1.2740959E0,6.170896E0,1.0897203E3,1.4543033E0,9.347667E0,3.1404192E0,1.8436985E1,3.92625E0,1.6300747E0,1.6033099E0,4.643826E0,1.268317E1,4.935924E0,1.005832E0,2.1283628E1,1.5541805E0,6.6652007E0,1.4849265E0],"tree_param":{"num_deleted":"0","num_feature":"27","num_nodes":"47","size_leaf_vector":"1"}},{"base_weights":[-8.855212E-4,1.1025178E0,-1.0720075E0,1.1053183E0,-2.7141565E-2,-1.2723643E-1,-1.0986443E0,1.1078587E0,-2.228542E-2,-6.3324463E-1,3.914126E-1,-8.1074053E-1,-1.1123658E0,1.1179765E0,7.1218276E-1,-7.660409E-1,2.8758636E-2,-2.3533544E-1,8.2594454E-1,-4.849114E-1,-1.0252079E0,-5.574779E-2,-6.9272614E-1,5.5983614E-2,-1.0844349E-2,4.3324437E-2,-6.370087E-2,-4.761373E-2,1.928748E-2,-4.3107986E-2,2.3328187E-2,-1.1475836E-2,5.4593142E-2,2.3553764E-2,-3.6137935E-2,-5.50822E-2,-2.0814668E-2,-4.9008314E-2,2.1765664E-2],"categories":[],"categories_nodes":[],"categories_segments":[],"categories_sizes":[],"default_left":[0,0,0,0,0,0,0,0,0,0,0,0,0,0,0,0,0,0,0,0,0,0,0,0,0,0,0,0,0,0,0,0,0,0,0,0,0,0,0],"id":30,"left_children":[1,3,5,7,-1,9,11,13,-1,15,17,19,21,23,25,27,-1,29,31,33,35,-1,37,-1,-1,-1,-1,-1,-1,-1,-1,-1,-1,-1,-1,-1,-1,-1,-1],"loss_changes":[2.5767986E3,5.548584E0,2.7701172E1,4.7192383E0,0E0,8.506022E0,3.3481445E0,3.491333E0,0E0,3.0578423E0,4.5946865E0,3.1806526E0,3.408203E-1,2.6027832E0,1.0132503E1,3.6113605E0,0E0,3.6552486E0,2.9909096E0,5.5221543E0,9.768524E-1,0E0,3.3200111E0,0E0,0E0,0E0,0E0,0E0,0E0,0E0,0E0,0E0,0E0,0E0,0E0,0E0,0E0,0E0,0E0],"parents":[2147483647,0,0,1,1,2,2,3,3,5,5,6,6,7,7,9,9,10,10,11,11,12,12,13,13,14,14,15,15,17,17,18,18,19,19,20,20,22,22],"right_children":[2,4,6,8,-1,10,12,14,-1,16,18,20,22,24,26,28,-1,30,32,34,36,-1,38,-1,-1,-1,-1,-1,-1,-1,-1,-1,-1,-1,-1,-1,-1,-1,-1],"split_conditions":[5.6737587E-2,1.388889E-1,6.2943265E-2,1.375E-1,-2.7141565E-2,4.032258E-2,6.845514E-2,5.239241E-2,-2.228542E-2,1.3934426E-1,3.6144577E-2,1.7391304E-2,1.9008264E-1,1.2021858E-1,6.535948E-2,9.6045196E-2,2.8758636E-2,1.8181818E-2,5E-3,4.950495E-3,7.4235804E-2,-5.574779E-2,4.2857144E-2,5.5983614E-2,-1.0844349E-2,4.3324437E-2,-6.370087E-2,-4.761373E-2,1.928748E-2,-4.3107986E-2,2.3328187E-2,-1.1475836E-2,5.4593142E-2,2.3553764E-2,-3.6137935E-2,-5.50822E-2,-2.0814668E-2,-4.9008314E-2,2.1765664E-2],"split_indices":[0,15,0,4,0,5,0,0,0,7,19,16,19,26,25,1,0,13,1,26,19,0,4,0,0,0,0,0,0,0,0,0,0,0,0,0,0,0,0],"split_type":[0,0,0,0,0,0,0,0,0,0,0,0,0,0,0,0,0,0,0,0,0,0,0,0,0,0,0,0,0,0,0,0,0,0,0,0,0,0,0],"sum_hessian":[2.1782546E3,1.0729446E3,1.1053102E3,1.0714491E3,1.4954646E0,3.0466782E1,1.0748434E3,1.0699824E3,1.4666828E0,1.5309481E1,1.51573E1,5.1630287E1,1.0232131E3,1.0415237E3,2.8458706E1,1.4123491E1,1.1859896E0,6.3937206E0,8.763579E0,2.1788757E1,2.984153E1,1.0152898E3,7.923322E0,1.0403633E3,1.1603864E0,2.6930265E1,1.5284413E0,1.2306817E1,1.8166735E0,3.2568755E0,3.1368454E0,1.7911562E0,6.972423E0,4.145608E0,1.764315E1,2.5794405E1,4.0471244E0,6.418809E0,1.504513E0],"tree_param":{"num_deleted":"0","num_feature":"27","num_nodes":"39","size_leaf_vector":"1"}},{"base_weights":[-9.5186324E-4,1.0948689E0,-1.0632654E0,1.0977558E0,-2.6193902E-2,-1.2179626E-1,-1.090586E0,1.1012198E0,-1.5429595E-1,-6.105369E-1,3.7798545E-1,-7.938836E-1,-1.1049694E0,1.1113095E0,7.096678E-1,-4.2839415E-2,3.5704356E-2,-1.011507E0,-1.2757955E-1,-2.2697072E-1,8.034384E-1,-4.690825E-1,-1.0117009E0,-5.538246E-2,-6.7847264E-1,5.5627193E-2,1.9203391E-3,4.2448133E-2,-6.0246974E-2,-5.524851E-2,-1.626784E-2,-3.7340745E-2,2.6472285E-2,-4.1698035E-2,2.2429856E-2,-1.1122373E-2,5.3341415E-2,2.2364808E-2,-3.5239134E-2,-5.4510903E-2,-2.0189311E-2,-4.8481937E-2,2.0950159E-2],"categories":[],"categories_nodes":[],"categories_segments":[],"categories_sizes":[],"default_left":[0,0,0,0,0,0,0,0,0,0,0,0,0,0,0,0,0,0,0,0,0,0,0,0,0,0,0,0,0,0,0,0,0,0,0,0,0,0,0,0,0,0,0],"id":31,"left_children":[1,3,5,7,-1,9,11,13,15,17,19,21,23,25,27,-1,-1,29,31,33,35,37,39,-1,41,-1,-1,-1,-1,-1,-1,-1,-1,-1,-1,-1,-1,-1,-1,-1,-1,-1,-1],"loss_changes":[2.4323667E3,5.381592E0,2.7156494E1,4.6241455E0,0E0,7.8140087E0,3.5222168E0,3.2580566E0,2.8754153E0,2.9845576E0,4.2919226E0,3.1489372E0,3.6938477E-1,1.2770996E0,8.623368E0,0E0,0E0,1.9460583E-1,3.8283722E0,3.3972654E0,2.8298178E0,5.158661E0,9.818783E-1,0E0,3.1877294E0,0E0,0E0,0E0,0E0,0E0,0E0,0E0,0E0,0E0,0E0,0E0,0E0,0E0,0E0,0E0,0E0,0E0,0E0],"parents":[2147483647,0,0,1,1,2,2,3,3,5,5,6,6,7,7,8,8,9,9,10,10,11,11,12,12,13,13,14,14,17,17,18,18,19,19,20,20,21,21,22,22,24,24],"right_children":[2,4,6,8,-1,10,12,14,16,18,20,22,24,26,28,-1,-1,30,32,34,36,38,40,-1,42,-1,-1,-1,-1,-1,-1,-1,-1,-1,-1,-1,-1,-1,-1,-1,-1,-1,-1],"split_conditions":[5.6737587E-2,1.388889E-1,6.2943265E-2,1.3043478E-1,-2.6193902E-2,4.032258E-2,6.845514E-2,5.239241E-2,5.076142E-3,3.6697246E-2,3.6144577E-2,1.7391304E-2,1.9008264E-1,1.1666667E-1,6.535948E-2,-4.2839415E-2,3.5704356E-2,3.797468E-2,3.521127E-2,1.8181818E-2,5E-3,4.950495E-3,7.4235804E-2,-5.538246E-2,4.2857144E-2,5.5627193E-2,1.9203391E-3,4.2448133E-2,-6.0246974E-2,-5.524851E-2,-1.626784E-2,-3.7340745E-2,2.6472285E-2,-4.1698035E-2,2.2429856E-2,-1.1122373E-2,5.3341415E-2,2.2364808E-2,-3.5239134E-2,-5.4510903E-2,-2.0189311E-2,-4.8481937E-2,2.0950159E-2],"split_indices":[0,15,0,4,0,5,0,0,21,22,19,16,19,26,25,0,0,21,19,13,1,26,19,0,4,0,0,0,0,0,0,0,0,0,0,0,0,0,0,0,0,0,0],"split_type":[0,0,0,0,0,0,0,0,0,0,0,0,0,0,0,0,0,0,0,0,0,0,0,0,0,0,0,0,0,0,0,0,0,0,0,0,0,0,0,0,0,0,0],"sum_hessian":[2.0874731E3,1.0275165E3,1.0599567E3,1.0260085E3,1.507945E0,3.0045288E1,1.0299114E3,1.02329785E3,2.7106116E0,1.5078396E1,1.4966893E1,5.0217606E1,9.796938E2,9.957993E2,2.749855E1,1.5058128E0,1.2047989E0,7.640527E0,7.4378686E0,6.372412E0,8.594481E0,2.1424187E1,2.8793417E1,9.7198944E2,7.704325E0,9.9461816E2,1.1811867E0,2.6152449E1,1.3461024E0,6.187335E0,1.4531916E0,3.7586977E0,3.6791708E0,3.2330735E0,3.1393387E0,1.7875472E0,6.806934E0,4.1994424E0,1.7224745E1,2.479727E1,3.9961479E0,6.1809654E0,1.5233598E0],"tree_param":{"num_deleted":"0","num_feature":"27","num_nodes":"43","size_leaf_vector":"1"}},{"base_weights":[-1.047045E-3,1.0875955E0,-1.0549493E0,1.0905726E0,-2.5283603E-2,-1.1935438E-1,-1.0828806E0,1.0941188E0,-1.4950642E-1,2.194233E-1,-8.2581043E-1,-7.773004E-1,-1.0979548E0,1.1046939E0,6.916321E-1,-4.1620757E-2,3.510507E-2,4.1403404E-1,-7.887188E-1,-1.0222297E0,1.7826858E-3,-4.5367515E-1,-9.984839E-1,-1.1007289E0,-6.645059E-1,5.5298876E-2,1.8688309E-3,4.1581076E-2,-5.7780754E-2,3.1397372E-2,-3.0311463E-2,-1.0829647E-2,-4.6225045E-2,-5.8369327E-2,-1.6992545E-3,2.1246811E-2,-3.435423E-2,-5.3958476E-2,-1.9580014E-2,-5.5140387E-2,-3.5010155E-2,-4.796677E-2,2.01691E-2],"categories":[],"categories_nodes":[],"categories_segments":[],"categories_sizes":[],"default_left":[0,0,0,0,0,0,0,0,0,0,0,0,0,0,0,0,0,0,0,0,0,0,0,0,0,0,0,0,0,0,0,0,0,0,0,0,0,0,0,0,0,0,0],"id":32,"left_children":[1,3,5,7,-1,9,11,13,15,17,19,21,23,25,27,-1,-1,29,31,33,-1,35,37,39,41,-1,-1,-1,-1,-1,-1,-1,-1,-1,-1,-1,-1,-1,-1,-1,-1,-1,-1],"loss_changes":[2.2969026E3,5.222412E0,2.6453003E1,4.4874268E0,0E0,7.5074964E0,3.6958008E0,3.409546E0,2.7266796E0,4.540805E0,1.7507982E0,3.1154423E0,3.9733887E-1,1.2652588E0,8.144346E0,0E0,0E0,4.453208E0,9.649682E-2,1.148695E0,0E0,4.8183665E0,9.8666763E-1,3.1738281E-3,3.0609667E0,0E0,0E0,0E0,0E0,0E0,0E0,0E0,0E0,0E0,0E0,0E0,0E0,0E0,0E0,0E0,0E0,0E0,0E0],"parents":[2147483647,0,0,1,1,2,2,3,3,5,5,6,6,7,7,8,8,9,9,10,10,11,11,12,12,13,13,14,14,17,17,18,18,19,19,21,21,22,22,23,23,24,24],"right_children":[2,4,6,8,-1,10,12,14,16,18,20,22,24,26,28,-1,-1,30,32,34,-1,36,38,40,42,-1,-1,-1,-1,-1,-1,-1,-1,-1,-1,-1,-1,-1,-1,-1,-1,-1,-1],"split_conditions":[5.6737587E-2,1.388889E-1,6.2943265E-2,1.3043478E-1,-2.5283603E-2,4.5045044E-2,6.845514E-2,5.239241E-2,5.076142E-3,8.6021505E-2,5.925926E-2,1.7391304E-2,1.9008264E-1,1.1666667E-1,6.535948E-2,-4.1620757E-2,